{"bias": 0.0, "weights": [0.3491169127957758, 0.8026568266366667, 0.15245619227058538, 0.1885759154630914, 2.304800305169892, 0.151237893944493, 0.042703333532426384, 0.1149287792992897, 1.3007568712572866, 0.4521076808726365, 2.8338166361642125, 0.9427741989565338, 0.3175041189315527, 0.45360514443231625, 0.10270968623250303, 0.1733268808006757, 0.012983383587236181, 0.08411572412393767, 0.22152016997638818, 0.30669937607649833, 0.5558462709697528, 1.6924501956262687, 0.6846789598973488, 0.030844798667914987, 1.4177957447424316, 0.676991267096869, 0.2611574224522516, 0.7530675533966729, 0.34972495494497907, 0.19966955137580225, 0.54012462429385, 0.0787770472138795, 1.7120159225939056, 0.4224526775386887, 0.00022582921237332063, 0.2635334326786039, 0.06592173400925432, 0.1601794260101117, 0.00013320901906465515, 10.789378579401566, 0.47592965397616854, 1.5405848820123322, 0.35900966248146204, 0.7585759845843159, 0.7065476211596324, 1.960858527537208, 6.693535063408015, 2.1878579443496444, 0.7450386496607917, 0.566298690291976, 0.03586461850405496, 0.047765521253196164, 1.2784543317091297, 0.44912949864178736, 0.20585496854643667, 0.4641312469046002, 0.495201066744754, 6.046659378055166, 0.10992774185341288, 0.0902615543953352, 0.42690570057279736, 0.6181988165515037, 2.321191424606785, 0.8868358803466908, 1.3033112741608848, 0.040266889471982495, 0.02195845392173739, 0.07893618873076771, 0.17384837709905895, 2.841776840365188, 0.05130513145372632, 0.02810536818203201, 1.3942035383234648, 0.43133459231075344, 3.2041975415785724, 0.9324535294364582, 2.1378539140524806, 0.0330524482549122, 0.03719043705800037, 3.829820945997318, 0.3487168595032354, 3.3854113350503243, 0.17499094180019384, 0.319118697582999, 1.4841058866795007, 0.029496418411459648, 4.075020727579507, 0.06888053540699003, 0.9183578413730711, 0.3927130183516289, 2.39031306696934, 0.3669022849658384, 0.5764063596256189, 5.001983887345055, 0.18537224629897583, 0.020878244559099788, 0.8509450469339562, 0.5080875222798349, 0.792900273747804, 1.2556473520964999e-05, 7.205680308458804, 7.078164677794278, 0.09458912559239913, 5.168846309823705, 9.051464585289491e-05, 0.790811510489641, 0.688631018010511, 2.7198826901320494, 1.013693824390333, 0.6495931344274677, 1.1306773755421438, 1.225051091709096, 0.10683105418201597, 0.01418047851535858, 3.4795431435030664, 0.03595637398376187, 0.08034298984112598, 1.0797905049247998, 0.3447356707938906, 0.2305024612991033, 0.14567530624276992, 0.05154381548657192, 1.8798464274272324, 0.021611461612000275, 1.0447033684058336, 4.486523531412391, 0.6140398545654165, 0.9659568045387477, 0.08892322793388166, 0.6179166029989906, 0.1998124662592843, 7.092491401438082, 3.075523488413758, 3.9467414498614004, 0.3522569348440559, 0.3330965063944924, 0.2524045080050939, 0.03993732025112061, 0.43167123143697256, 0.15286343399438054, 2.2127183050707875, 1.6560300380208537, 8.239683873207456, 2.021713837990931e-05, 0.04545937079301206, 3.1274308725714612, 1.4095220145358465, 0.009874924341677586, 0.18043426726104725, 0.0386336544882779, 0.46228344963218887, 0.04640953601150445, 3.2506611830677654, 6.710366174407182, 0.0020757247797869426, 1.2428365116150024, 0.5580633088370927, 0.647368048742767, 0.09627833649612239, 1.1934582170743373, 0.11626413657037532, 3.06871271649767, 0.06051136526006746, 2.0219320552320945, 5.186907812506818, 14.823383503504868, 1.446089141746241, 2.9881943860066302, 0.0852623071025729, 1.4170231551040777, 0.2485568190513336, 0.19376365307080656, 0.10911141444435137, 0.3151418901724474, 1.2204117839845436, 0.06986479330604715, 1.684280430268622, 5.691666442540834, 2.674865710008692, 3.413020055862295, 2.0639093009563156, 0.2453802963589253, 0.6483650611113638, 0.5584162376403123, 0.10497833264093163, 0.043220543265494696, 1.5453170887765089, 0.35665916162775474, 0.004164567374487661, 0.15777418671623314, 3.5666403899169326, 7.718641829548898, 0.8346040439932214, 0.05714632997106473, 0.26829405269865675, 0.6736923990802309, 1.8433507758028653, 0.02095361406356416, 0.8441800503032534, 1.2556641749050284, 1.2993401141254761, 1.474003558483341, 0.2025292532638122, 1.3773955345725826, 0.10088313408094612, 0.5476558475261293, 5.729755669761802, 0.219018388427496, 0.002597374900435602, 1.7012156417219257, 5.095563131486628, 6.819356312440668, 6.682936829026984, 0.04364036075189739, 0.167884732795755, 0.023639437748380173, 0.2872165167577997, 2.6810422311068303, 0.3852480280982816, 0.18649876268045848, 3.4925239663241974, 0.07672246117822172, 0.22301416612775773, 6.352885357037845, 0.18786843873812736, 0.07951951607210427, 1.2213163137032728, 0.028077717199962424, 8.67958541452215, 0.32297054478705295, 0.08495442158512033, 0.03157877200601339, 7.056349813518723e-05, 0.4203855133971687, 1.0617729455608098, 2.3148655157816918, 0.11379377138410204, 3.509867429244904, 0.04819630848311259, 0.05535098804190715, 0.699042540012752, 3.749188458221915, 1.8807642144859462, 1.7522078508831411, 1.1769409265114734, 0.3103909697751119, 0.06375129504820339, 0.08025302145474938, 0.10447557853459669, 2.5145199536157095, 6.214152752938728, 1.2253855435399499, 0.1829789947296592, 0.1287430533972548, 0.23877235203079747, 0.23691064460707756, 0.6534873593824637, 0.0098794811212337, 0.039236096718493894, 1.1978230992615537, 2.1058793578948936, 1.1010653231197798, 0.1321240980537869, 1.4224436703064978, 1.4172376181387767, 6.331515209225504, 0.09468102878773235, 2.5841898496227533, 0.8370546657208622, 0.04207028418251491, 0.13449106091120216, 0.18010016759496528, 1.5847825468907564, 1.763355926968445, 0.2841084636522929, 0.1749319865740388, 2.2762875187548146, 1.4761372139863456, 0.3392223231105123, 1.3697274367769892, 3.486678966574938, 0.6268846048044964, 0.4764062792163911, 0.553816684694386, 3.8780760754131403, 4.084048629609787, 0.12590608099396128, 0.5667528927272918, 4.008737863498174, 0.7344692079365316, 0.15213526133657723, 0.20512776800811716, 0.7821256787126389, 0.46074584549200476, 0.021325366629245023, 1.7266436409560326, 1.1344604196236514, 0.04485402111167181, 0.08288929804710121, 0.27563807505921956, 0.6857692453951868, 2.6360006308172843, 0.2645576211137402, 0.3422587915269478, 3.6253697795093425, 0.11066714960531307, 0.19839583453030973, 1.1495734816419776, 2.0556294870823195, 0.47012252077028144, 0.29185959656745986, 0.10237555177380485, 2.6268923554884474, 4.968387254197116, 1.4363534787054408, 1.7850984619308292, 0.2352725355822541, 0.7911292378474437, 1.8935722788577234e-05, 0.6846486201068341, 1.20858738882878e-05, 0.5086947604987393, 1.941266255519197, 0.12058553603705376, 1.3400651567580344, 0.5404060408289816, 4.899118755965596, 1.7945578104335032, 0.995206396429774, 1.1898599353881683, 1.8393069584562927, 0.015770871733442684, 2.5850305363236137, 0.54695837392462, 1.2107545744113506, 0.34476715788594386, 1.9275965595050273, 0.474915486416234, 1.474041667081267, 0.6143119835500571, 0.6944177559657301, 0.6725540331367449, 4.117752943103989, 4.535440879607224e-05, 0.15549841351527463, 1.1718638817672342, 0.15491681000150279, 0.13068956914834012, 5.403769119142529, 0.1295108515208111, 0.4360677658359399, 3.2419820936559622, 0.47337280941920884, 0.9356544436056212, 2.427715184969115, 2.245367500476592e-05, 0.9195654669594291, 0.2084904526719405, 1.2668775361017037, 0.8850332722549301, 0.6238662779041649, 3.657116158622535, 1.9296167035425016, 2.699898686684844, 0.6453546739152765, 1.9730016020511199, 0.8055152877987672, 0.6286188736281807, 4.233673043342512, 0.2845356968626005, 0.29657646092254136, 4.195170857484408, 0.043690810609509786, 0.8263195996762722, 0.8778826030499831, 0.519702490640887, 0.05714756005294771, 7.537865966706541, 0.8219966180503675, 2.390187190545738, 1.2054340954584786, 0.3029290936185574, 5.638134950701983, 0.9183561561009614, 4.404985399752688, 0.0940630096077291, 8.381020234558168, 0.21795677978406983, 0.05734305543691954, 0.13693889719278252, 0.0604050489483618, 0.40818409446999643, 0.00430708454772751, 1.345383769339118, 3.6330278744965803, 0.059023536604229765, 2.576383948721026e-05, 0.9276883544350497, 2.3814591915336447e-05, 0.6445581836127391, 3.158826090030082, 1.4213159505227908, 0.8863030466709466, 0.36292411154693965, 0.14928108604347848, 1.451284758791071, 0.238231988481172, 0.043673049365777615, 0.23054652161906444, 6.133634620272823, 1.2502520806887314, 0.06168787101763025, 0.04797889307332071, 1.96969943060528, 1.517600206001594, 0.32258415328129053, 2.0957774434891747, 3.128345591166665, 0.21864916202324952, 1.2385249234648597, 0.48930570353399866, 1.2877063655610794, 0.5784909112861737, 1.509062752126679, 0.174524646541394, 0.3791849757590113, 0.4600850304969573, 0.0960643663639927, 0.07905979742454408, 0.6086376680693479, 0.716842780114794, 0.39452609562540303, 3.630017669783531, 3.807521015497833, 0.04770919983859647, 0.9771567554142951, 3.7613325722715207, 0.23391393131228552, 0.14805063018431436, 1.0137678862020956, 0.7636705829724341, 0.6656292394926366, 0.006823128867698296, 0.43994246118749214, 1.0546808216050418, 0.12248313136902572, 0.04084303413720635, 0.2772157854084324, 0.21090435062014454, 0.6364412436847782, 0.24876582155398955, 0.38830623689374194, 1.7907784099796245, 8.898788175133474, 0.32846327870670405, 2.208539041764808, 0.8900048334798133, 0.823135613819154, 1.8454994114779328, 0.0010586994724804514, 0.06408971346473448, 1.7600747565229236, 0.6055129112657497, 0.04398554496124537, 0.012238346312435502, 0.8233597503705338, 1.3564398024301243, 1.353257156474253, 0.5808971380834215, 9.498756978248183, 1.2402669590679938, 1.1066182104743583, 0.09691836430069502, 1.3829698155286283, 0.2521890456496632, 5.185835888036991, 0.03014756093383955, 0.49785866711825466, 0.7931046506583519, 0.03901831632436849, 0.14434131573762723, 0.11391292582684259, 0.00020056969442088695, 4.260173955708548, 0.849547479188683, 0.08154586743979911, 0.7861407285779052, 0.7485881170524855, 0.08689815736428959, 0.3867863428828003, 3.4387095488196833, 1.6684646287766565, 1.1192830414588855, 3.0355119671674666, 6.434390632321887, 2.181263396253958, 0.5044905620467464, 3.482028774623461, 0.6928627993856986, 0.8689526070889998, 2.1661169666888203, 1.4155473373086769, 2.074406515476076, 0.3426091945815725, 3.5171061792974987, 0.24242006563980836, 0.06695645255955426, 0.17832755683628126, 6.653430733122079, 1.778610438651275, 1.8765317244995336, 1.0206612816461245, 0.7886377997672557, 0.32215040162142583, 0.00021607508252044863, 0.6764934800555905, 0.23634750719663292, 0.13263408366767, 2.7442271601090384, 0.7348830627644745, 0.7980494001445281, 0.11568319404573646, 0.29571287115716727, 1.192466931957026, 0.0651828372307938, 6.628968257063888, 0.11588899002776326, 1.8974126682875168, 2.0637403629699285, 0.7313167262362997, 0.8050938749554597, 1.1307519927601326, 1.3374969028749102, 0.001881031951229346, 0.16473279113619219, 1.1659953662179559, 0.5121317101497215, 0.5042439397789041, 0.5401715397519045, 2.118773885256998, 2.158870533662738, 1.4295986090141843, 0.3563904833984896, 0.089706779377552, 0.9160135664477181, 3.289052768835276, 1.7706007409024846, 0.20728298223655267, 0.8133086236346632, 0.48193420950890536, 1.721609992152076, 0.3934434278429041, 2.1801197417185296, 6.159222404856969, 0.5414948503895548, 0.3478519970155743, 4.477929254685341, 4.3594270813401765, 0.1374381944534427, 0.00019750104214210718, 0.2480909891416555, 0.3814993823714485, 2.3343156732935637, 1.0813015266003834, 1.06872445245521, 2.444052120474712, 0.5474989775754562, 1.5309269743350364, 2.269606119450346, 0.04100328098568163, 0.8141324934616944, 0.26926689191560615, 2.4095182083345854, 0.6159386082383485, 5.699148945685008, 1.4407762882163304, 0.8060659058384495, 1.1741435606960025, 0.5590285953139692, 0.9035109164504281, 1.6844019689613288, 0.0410573721244456, 0.3110442443478187, 0.05786338898951932, 2.586030551074606, 0.07643746242024414, 0.9440150590173847, 2.5049992504969407, 14.3504300810562, 6.9125403136436745, 3.899730120397628], "kernel": "gaussian", "support_vectors": [[-0.50092, -0.81454, -0.23459, -0.57665], [0.64706, 0.43449, 0.5779, 0.20668], [-0.068032, -0.97719, -0.37034, -0.79825], [0.30597, 0.27991, -0.50617, 0.15177], [-0.39269, -0.034933, 0.55208, 0.12115], [-0.22245, -0.31035, -0.65197, -0.11245], [0.002626, -0.48259, 0.75015, -0.47801], [-0.30315, -0.67303, 0.81298, -0.54437], [-0.36701, 0.018995, -0.12773, 0.16332], [0.097931, -0.43097, -0.41071, -0.37508], [-0.4108, -0.20415, 0.416, -0.028162], [0.0053951, -0.39726, 0.18559, -0.44579], [0.25977, 0.77968, 0.87317, 0.63894], [-0.36092, -0.94529, 0.33808, -0.68674], [-0.36461, -1.102, 0.29992, -0.80198], [-0.036712, 0.16125, 0.78402, 0.19838], [-0.47817, 0.01153, -0.57606, 0.15277], [0.42893, 1.0129, -0.050886, 0.78988], [-0.81079, -1.4979, -0.83947, -1.0376], [0.27108, 0.95101, -0.10398, 0.77574], [0.33853, -0.13977, -0.077731, -0.22474], [-0.55047, -0.095082, 0.072297, 0.10754], [0.41296, 0.91563, 0.82976, 0.74573], [-0.38006, -0.10707, -0.8499, 0.046603], [0.3638, 1.1086, 0.83719, 0.84097], [0.64339, 1.1754, 0.64863, 0.86542], [0.27688, 0.045328, 0.4007, -0.1637], [0.56449, 0.62259, 0.5833, 0.36015], [0.37623, 0.089687, 0.38921, -0.084916], [-0.43431, -0.90914, 0.64541, -0.69031], [0.64518, 1.0711, 1.0825, 0.77312], [-0.1406, -0.79279, -1.0553, -0.63948], [-0.66219, -0.60724, 0.066466, -0.27182], [-0.44105, -0.12277, -0.13683, 0.092779], [-0.64279, -0.64554, -0.76747, -0.24869], [-0.45459, -0.4229, 0.42688, -0.25388], [-0.19138, 0.23786, 0.89807, 0.22954], [0.19702, -0.31885, 0.063445, -0.41389], [0.28546, 0.036258, -0.8092, -0.01738], [-0.45484, -0.038927, 0.24297, 0.079236], [-0.26435, 0.24249, 0.11632, 0.34179], [-0.11662, 0.46767, 0.43185, 0.45962], [-0.044944, 0.58146, -0.024228, 0.5387], [0.89082, 1.1154, 0.25842, 0.70007], [0.37606, 0.35105, 0.6964, 0.15106], [0.57254, 1.2222, 0.1524, 0.95732], [-0.44284, -0.30545, 0.23648, -0.2046], [0.81486, 1.3553, 0.59458, 0.95891], [-0.14538, 0.26147, -0.17614, 0.33785], [-0.304, -0.67528, 0.49262, -0.47471], [-0.64505, -0.68121, -0.94119, -0.33196], [-0.87287, -0.68644, -0.40336, -0.26048], [-0.12711, 0.49501, 0.88542, 0.45245], [0.51619, 0.24079, 0.13819, 0.035214], [0.097246, 0.36818, -0.38877, 0.41537], [-0.12934, -0.03728, 0.81489, 0.077944], [-0.52694, -0.22014, 0.042487, 0.066039], [0.60215, 0.84472, 0.15556, 0.66215], [0.28857, 0.7574, -0.77148, 0.64179], [0.017243, -0.51454, -0.51589, -0.41885], [-0.82744, -0.99782, -0.13778, -0.49972], [-0.23766, 0.11982, 0.74705, 0.17976], [-0.18706, 0.37356, 0.57469, 0.41299], [-0.038865, 0.88297, -0.041812, 0.83218], [-0.53465, -0.3844, 0.27871, -0.256], [-0.68308, -0.18887, -0.16305, -0.031825], [0.047701, 0.73425, 0.65504, 0.56498], [-0.49034, -0.67115, -1.1052, -0.33656], [-0.57699, -1.4109, -0.16166, -1.0571], [0.83805, 1.4038, 0.57299, 0.93575], [0.4044, 0.48041, -0.79326, 0.28788], [-0.39888, -1.285, -0.76699, -0.9754], [-0.11271, 0.30671, 0.52939, 0.29906], [0.47199, 0.21421, 0.13687, -0.018757], [0.76049, 1.4206, 0.56155, 0.99624], [-0.26239, 0.30213, 0.49644, 0.32172], [-0.29517, 0.48425, 0.1071, 0.48887], [0.08538, 0.33747, -0.48614, 0.33209], [-0.28752, -1.1332, -0.87836, -0.86571], [-0.38934, 0.0092728, 0.50235, 0.13643], [-0.74221, -1.5734, -0.39041, -1.1267], [0.61169, 1.5324, 0.038137, 1.0508], [-0.4923, -0.16825, -0.057148, 0.029646], [0.24445, 0.41439, 0.7293, 0.26671], [0.34143, 0.82395, 0.61524, 0.66676], [0.016194, -0.5113, -0.71207, -0.30553], [0.75012, 1.1518, 0.084134, 0.78074], [-0.44218, -0.024989, -0.33655, 0.1191], [0.73292, 1.0924, 0.54834, 0.71737], [0.21311, 1.1319, -0.32434, 0.85406], [-0.58518, -0.43726, 0.075381, -0.1481], [-0.56232, -0.64772, 0.52294, -0.42261], [0.12985, 0.75918, 0.41642, 0.69836], [-0.46134, -0.20032, 0.021022, -0.0030543], [-0.10044, 0.18952, 0.56678, 0.12698], [-0.75029, -1.1359, -0.9994, -0.731], [0.21837, -0.42995, -0.043126, -0.39956], [0.77492, 1.0209, 0.67156, 0.68993], [-0.31604, 0.24264, 0.6006, 0.24622], [-0.31999, -0.22249, 0.67531, -0.086768], [-0.34818, 0.21096, 0.35999, 0.3352], [0.68467, 1.4684, 0.30226, 1.0752], [0.094352, 0.52987, -0.53771, 0.35146], [0.45845, 0.57867, -0.12572, 0.38084], [0.12761, 0.11243, -0.83791, 0.01057], [0.60581, 1.3369, 1.0239, 0.8828], [-0.004746, -0.64413, -0.15676, -0.5764], [-0.058736, 0.76077, 0.47024, 0.63552], [0.58404, 0.84415, -0.16844, 0.58568], [0.88572, 1.3617, 0.72059, 0.85093], [0.7119, 0.82946, 0.1615, 0.38865], [0.84603, 1.1743, 0.44741, 0.72472], [-0.0072746, 0.18034, -0.55211, 0.23201], [-0.70279, -1.4735, -0.32296, -1.07], [0.30781, 0.70776, 0.24801, 0.60538], [0.44204, 0.14162, -0.023119, -0.086177], [0.64305, 0.64891, 1.054, 0.3296], [-0.10978, 0.49523, 0.54716, 0.49489], [-0.51698, -1.1861, 0.42172, -0.88869], [0.074183, -0.27037, 0.62204, -0.28163], [-0.18786, -0.080716, 0.91807, 0.00877], [0.34304, 0.20945, -0.5301, 0.17144], [0.35391, 0.91292, 0.16408, 0.7587], [0.28559, 0.28251, 1.0718, 0.090763], [0.42287, 1.1686, 0.53793, 0.91086], [-0.27635, 0.36007, 0.26957, 0.37263], [0.61882, 1.2039, 0.78762, 0.90742], [0.0090221, 0.7325, 0.81464, 0.56182], [-0.68435, -1.3106, -1.0368, -0.94411], [0.57639, 1.3819, 0.47411, 0.97457], [-0.25228, -0.81878, -0.23861, -0.67822], [0.67291, 0.91779, 0.33807, 0.68548], [0.49305, 1.0545, 0.24207, 0.8194], [-0.33221, -0.056898, 0.38071, 0.035334], [-0.47567, -0.54232, -0.49533, -0.31879], [-0.62371, -0.49471, -0.11155, -0.24979], [-0.050245, -0.48951, 0.36638, -0.47457], [0.86282, 1.0575, 1.0151, 0.62765], [0.62997, 1.1281, 0.70697, 0.83534], [-0.31003, -0.49314, -1.2029, -0.3154], [-0.32957, 0.32667, 0.5765, 0.28822], [-0.37232, -0.055583, 0.082252, 0.15424], [0.67742, 1.0035, 0.33506, 0.75784], [0.21377, -0.33003, 0.23614, -0.39893], [0.16107, 0.76587, 0.42996, 0.66528], [0.47898, 1.1258, 0.49631, 0.85203], [0.16088, 0.83979, 0.63406, 0.68787], [0.079392, 0.089071, -0.61431, 0.22041], [-0.92386, -1.3097, -0.74983, -0.77884], [-0.28113, 0.28603, -0.58924, 0.34016], [-0.40766, -0.23362, 0.55428, -0.065653], [-0.58827, -0.42123, -0.23028, -0.13687], [0.82693, 1.1666, 0.3172, 0.73823], [0.66569, 1.089, 0.44328, 0.7324], [-0.23191, -0.91546, -0.82856, -0.59857], [0.024753, 0.53705, 0.60154, 0.52467], [-0.36753, 0.16836, -0.14327, 0.25548], [-0.045526, 0.36292, 0.70385, 0.37355], [0.17552, -0.28474, -0.99225, -0.15251], [0.43642, 1.2175, 0.12638, 0.94523], [0.29526, -0.22828, -0.17299, -0.33453], [-0.60636, -0.37387, 0.36737, -0.10069], [0.65891, 0.71386, 1.0085, 0.43632], [-0.3225, 0.03992, 0.49006, 0.13077], [0.61196, 1.1719, 0.19699, 0.87045], [0.60714, 0.90448, 0.060637, 0.62093], [-0.34724, -0.80094, 0.056513, -0.57352], [0.56402, 0.53634, 0.031364, 0.28988], [-0.038545, -0.68691, -0.53421, -0.55821], [0.39882, 0.63144, -0.16213, 0.46131], [-0.44394, -1.3317, -1.0585, -0.95268], [0.16135, 0.14909, -0.57208, 0.11016], [-0.056034, -0.68005, -0.29291, -0.62009], [0.3021, 1.1546, 0.057115, 0.91889], [0.51308, 0.24977, -0.00093461, 0.064119], [0.14487, -0.34623, -1.0135, -0.26379], [0.4648, 0.98697, 0.11844, 0.79148], [-0.58107, -0.57749, 0.13116, -0.15184], [0.51887, 0.49304, 0.48211, 0.27544], [0.63825, 0.60964, 0.29212, 0.41365], [-0.014263, 0.31597, 0.091616, 0.42958], [-0.42575, -0.66859, 0.13631, -0.50879], [0.46693, 0.0067888, 0.34182, -0.07927], [-0.28986, 0.39831, -0.031746, 0.4314], [0.14207, -0.73698, 0.32887, -0.66196], [0.24336, -0.14598, 0.40971, -0.29356], [0.016729, 0.52543, 0.79612, 0.53556], [-0.10075, -0.15433, 0.51979, -0.13522], [-0.023496, 0.19098, -0.71043, 0.11537], [-0.5001, -0.66585, 0.47329, -0.45684], [-0.48588, -0.28988, 0.33032, -0.094894], [0.62261, 0.97031, 0.067891, 0.70925], [-0.3768, 0.056124, 0.67548, 0.1104], [0.1643, 0.44319, 0.7715, 0.36773], [-0.29339, -0.61361, 0.3072, -0.50122], [0.27838, 0.67653, -0.12607, 0.54605], [-0.64154, -0.58731, 0.26568, -0.41022], [-0.54177, -0.97438, -0.44298, -0.59969], [-0.37327, -0.51354, 0.38194, -0.39546], [0.76016, 0.92034, 0.081517, 0.64007], [0.52064, 0.29428, 0.50173, 0.081328], [0.6254, 0.98238, -0.072011, 0.71536], [0.26624, -0.18816, -0.46544, -0.18728], [-0.045081, 0.48054, 0.27615, 0.48101], [0.33664, 0.91598, 0.9601, 0.68962], [-0.63314, -0.38788, 0.36948, -0.13318], [-0.29282, 0.28257, 0.17254, 0.28401], [0.37611, 0.92607, -0.11603, 0.7456], [0.24034, -0.10179, -0.8642, -0.067584], [-0.45855, -0.66627, 0.17251, -0.47261], [0.52508, 1.0691, 0.2846, 0.8392], [0.51408, 0.38463, 0.17739, 0.24148], [-0.34052, 0.26739, 0.41259, 0.21425], [0.15934, 0.79663, -0.27225, 0.62681], [0.24183, -0.56437, -0.36461, -0.43245], [0.25928, -0.64279, -0.083044, -0.55893], [0.68451, 0.8391, 0.66933, 0.55565], [-0.38936, -0.10488, 0.10243, 0.11543], [0.45559, 1.0529, 0.011067, 0.81563], [-0.35033, 0.18145, -0.20591, 0.24748], [0.61846, 1.4736, 0.51317, 1.0114], [-0.7031, -0.5957, -0.58835, -0.14959], [-0.33292, 0.22982, -0.099372, 0.33582], [0.6343, 1.2112, 0.31088, 0.86667], [0.31413, -0.68752, 0.17671, -0.60897], [0.48079, 1.2615, 0.99621, 0.82439], [-0.42797, -0.037695, 0.056032, 0.12918], [-0.052587, 0.70504, -0.10406, 0.66088], [0.65428, 1.571, 0.22744, 1.1352], [0.209, -0.36984, 0.15559, -0.40281], [-0.74723, -1.4877, -0.88386, -0.99975], [-0.53765, -0.15723, -0.042868, 0.035037], [0.34966, -0.05402, 0.23507, -0.25047], [0.42691, 1.2525, 0.41409, 0.99659], [0.45466, 0.86652, 0.66337, 0.66448], [0.57506, 1.1762, 0.18989, 0.93184], [-0.09495, 0.47668, -0.23423, 0.4531], [0.76766, 1.3978, 0.12312, 1.0408], [0.41363, -0.089119, 0.16179, -0.23004], [-0.4401, -0.11687, 0.66701, -0.05159], [0.13868, 0.84221, 0.88558, 0.62154], [-0.21208, 0.54076, 0.47273, 0.49613], [0.65053, 1.575, 0.77171, 1.0807], [0.24312, 0.76724, 0.39029, 0.67311], [0.37987, 1.1351, -0.039058, 0.83525], [0.14957, 0.3254, 0.83398, 0.29546], [-0.38402, -1.0223, -1.1293, -0.7663], [-0.16054, 0.52032, 0.27935, 0.50578], [-0.40465, -0.15181, 0.40614, -0.051498], [0.61018, 1.3952, 0.39921, 1.0071], [-0.47648, -0.11821, 0.13551, 0.078164], [-0.63926, -0.79441, -0.097612, -0.45709], [-0.37609, -1.0997, 0.21994, -0.79224], [0.54422, 1.2296, -0.12072, 0.95955], [0.53682, 1.3785, 0.65854, 1.0223], [-0.66652, -0.95394, -1.1875, -0.60878], [-0.51234, -0.49356, 0.61547, -0.26796], [0.68895, 1.3226, 0.56821, 0.93351], [0.69968, 0.70098, 0.85268, 0.41822], [0.41577, 1.2756, 0.33289, 1.0314], [-0.61994, -0.31536, 0.061696, -0.11205], [-0.58906, -0.57399, 0.1212, -0.41297], [0.10366, -0.20681, -0.57153, -0.20507], [-0.23259, 0.61764, 0.0078149, 0.55963], [0.63515, 1.0056, 0.45348, 0.66341], [0.75678, 1.1572, 0.48467, 0.81762], [0.20807, -0.05246, -0.50488, -0.19413], [-0.41462, -0.33968, 0.46531, -0.11952], [-0.41003, -0.04535, 0.53119, 0.046598], [-0.41461, -1.3027, -0.28598, -0.99961], [-0.20772, -0.9247, -1.0944, -0.63892], [-0.069939, -0.028691, -0.63789, 0.041418], [0.50841, 1.2754, 0.37653, 0.93403], [-0.42374, -0.29052, -0.23054, -0.053077], [0.46552, 0.14269, 0.28722, -0.047751], [-0.38213, -0.1818, -0.33505, 0.10477], [0.73042, 1.1061, 0.6085, 0.7791], [-0.25624, 0.095089, 0.4692, 0.097482], [0.43012, 1.007, 0.69117, 0.73377], [0.65671, 0.88921, 0.66734, 0.62697], [-0.23298, 0.58155, 0.22556, 0.52244], [0.22713, 0.73954, 0.53577, 0.59966], [0.60217, 0.80931, -0.14529, 0.6327], [0.37212, 0.74334, -0.11953, 0.57465], [0.62703, 1.0131, 0.44295, 0.66897], [0.61168, 1.4076, 0.36441, 0.99712], [0.04884, -0.51542, 0.62543, -0.48846], [0.39708, 0.082571, -0.051653, -0.12202], [0.3733, 0.67838, 0.027817, 0.55872], [0.30046, -0.070681, -0.093651, -0.22122], [0.16746, -0.39006, 0.32873, -0.41945], [0.41279, 0.0070664, -0.25273, -0.10836], [0.53849, 0.36186, -0.19828, 0.19688], [0.58255, 1.4354, 0.63226, 1.0551], [-0.68025, -0.80669, -0.98672, -0.45625], [-0.2693, 0.25799, 0.42482, 0.33045], [0.27163, 1.0524, 0.18345, 0.87535], [0.37506, 0.12281, 0.59965, -0.056325], [-0.65383, -0.90557, -0.46515, -0.48696], [-0.52651, -1.1116, 0.11185, -0.78337], [-0.083707, 0.57235, 0.17791, 0.52848], [0.71884, 1.4623, 0.71813, 1.0773], [-0.21247, -0.20644, -1.2, -0.091016], [0.52315, 0.17829, 0.03171, 0.013456], [-0.26214, 0.47185, 0.49681, 0.33162], [0.069793, 0.4523, 0.27197, 0.25245], [0.66877, 2.3441, 1.156, 1.7822], [0.70674, 1.567, 0.45108, 1.1307], [-0.42804, 0.36439, 0.10369, 0.32782], [0.49699, 0.29377, 0.04002, 0.28871], [0.066561, 1.7839, 0.26827, 1.2496], [0.1189, 0.19151, 0.31035, 0.50089], [0.55228, 1.3395, 0.28275, 0.87945], [0.66197, 1.2409, 0.10963, 0.86041], [-0.16303, -0.80428, -0.14941, -0.38682], [0.6131, 0.77024, 0.30793, 0.60873], [0.27361, -0.070792, 0.0045638, 0.091274], [0.79146, 1.6873, 0.21341, 1.1698], [-0.20712, 0.92993, 0.85028, 0.79144], [0.54817, 0.78785, 0.27556, 0.54657], [0.2336, 1.788, 1.0069, 1.5171], [-0.0015856, 0.24161, 0.59742, 0.49828], [-0.44465, -0.72266, -0.025106, -0.3834], [0.49249, 2.6123, 0.98044, 1.8939], [0.27963, 0.44798, -0.094764, 0.2949], [-0.19409, 0.075957, 0.22021, 0.12866], [-0.46687, -0.052129, 0.43872, 0.072759], [0.44438, 0.40009, -0.040504, 0.32971], [-0.60226, -0.24305, 0.50052, 0.029778], [-0.32557, 0.65138, 0.43142, 0.54229], [0.77206, 1.2369, 0.34122, 0.88715], [-0.27251, 0.877, 0.9421, 0.82831], [-0.13259, 0.17123, 0.37162, 0.39809], [-0.25247, 0.80026, 0.52435, 0.71186], [-0.092324, 0.27894, 0.51028, 0.55305], [0.38611, 0.65429, 0.74425, 0.80817], [-0.46816, 0.13473, 0.53577, 0.23566], [0.10747, 0.70289, 0.96783, 0.83912], [0.44707, 1.0516, 0.3979, 0.66169], [-0.75453, -0.047042, 0.19566, 0.186], [0.81021, 1.0041, 0.60785, 0.87901], [0.044081, -0.55745, 0.18034, -0.23088], [-0.41339, 0.22759, 0.33742, 0.35735], [0.74948, 2.7158, 0.72024, 1.7964], [0.47439, 0.75594, 0.71975, 0.84931], [-0.35455, 0.087302, 0.024737, 0.051528], [0.2022, 1.9278, 0.92711, 1.3055], [0.99159, 2.4153, 0.87136, 1.7082], [-0.47377, -0.11276, 0.22127, 0.047857], [0.092761, -0.32089, 0.22496, -0.06316], [0.024561, 1.4049, 0.94494, 1.0066], [-0.52526, -0.47916, 0.20818, -0.14713], [-0.37886, 0.47279, 0.52629, 0.49509], [0.46836, 0.61542, 0.26052, 0.57191], [-0.47596, -1.0082, 0.22874, -0.4786], [0.76169, 2.256, 1.0409, 1.6872], [-0.23341, 0.03044, 0.27835, 0.40964], [0.015524, 0.49085, 0.90223, 0.74899], [-0.2162, -0.12529, -0.18206, -0.044617], [0.27694, 0.92367, 0.60453, 0.95299], [-0.28062, -0.36641, -0.13147, -0.13216], [0.88016, 1.4445, 0.64859, 1.0318], [0.80809, 1.3837, 0.54077, 1.0859], [-0.37096, 0.36579, 0.33128, 0.40812], [0.47158, 1.1647, 0.83708, 1.0985], [-0.25407, 0.27552, 0.18409, 0.18762], [-0.43093, -0.46742, 0.028741, -0.19508], [0.3227, 1.3528, 0.16281, 0.8482], [0.51251, 0.32412, 0.149, 0.2743], [0.014223, 0.3598, 0.21252, 0.22718], [0.5584, 1.6497, 0.38987, 1.0795], [-0.32361, 0.06796, 0.38452, 0.16658], [0.88428, 2.7956, 0.84662, 1.9224], [0.76518, 1.7469, 0.082054, 1.082], [-0.1878, 0.11944, 0.54282, 0.39477], [-0.13599, 0.79275, 0.62425, 0.80992], [0.94917, 2.2266, 0.87118, 1.6044], [0.56716, 1.0927, 0.23671, 0.93912], [0.43155, 0.21332, 0.022202, 0.20567], [0.54953, 0.96719, 0.23438, 0.72461], [-0.021944, 0.37831, 0.67985, 0.59846], [0.15503, -0.16077, -0.018325, -0.029675], [-0.64296, -0.58982, 0.22553, -0.28534], [-0.077279, -0.49451, 0.43545, -0.17466], [-0.34983, 0.33724, 0.3944, 0.25193], [0.061607, 0.62876, 0.20706, 0.35456], [0.67355, 1.4304, 0.43585, 0.99431], [0.50113, 1.5231, 0.73457, 1.3011], [0.13934, 1.535, 1.0165, 1.2826], [-0.02194, 2.022, 0.77998, 1.4465], [0.053581, 0.94902, 0.9773, 0.96662], [0.74905, 1.6962, 0.53352, 1.0909], [0.26549, 0.81911, 0.64162, 0.91305], [-0.010408, 0.67672, 0.84506, 0.75048], [-0.50403, -0.082431, 0.057013, -0.025092], [-0.41168, 0.54002, 0.47687, 0.70069], [0.43606, 1.1537, 0.84332, 1.1035], [-0.48271, -0.30979, 0.26207, -0.0044798], [0.11255, -0.45436, 0.26639, -0.078151], [0.20671, 0.20611, -0.084435, 0.12373], [-0.060925, 0.49253, 0.40139, 0.3207], [0.55904, 1.6016, 0.25419, 1.0624], [0.59762, 0.66458, 0.27603, 0.69628], [0.17005, 0.15691, 0.27335, 0.12274], [-0.25424, 0.73847, 0.78841, 0.70286], [0.65439, 1.4419, 0.42328, 1.2539], [0.34244, 2.204, 1.136, 1.7236], [0.44469, 0.26494, 0.1549, 0.23836], [0.049522, 1.0021, 0.3414, 0.585], [0.68009, 1.0948, 0.49299, 0.77878], [-0.51134, -0.87266, -0.081912, -0.31234], [-0.13054, 1.3979, 0.39025, 1.0026], [-0.44031, -0.42893, 0.12154, -0.18367], [-0.55769, -0.31882, 0.50264, 0.0084653], [0.63923, 0.46855, 0.60819, 0.51889], [0.64843, 1.4322, 0.73175, 1.2486], [-0.55446, 0.034551, 0.20131, 0.16211], [-0.42686, 0.072931, 0.36209, 0.036185], [0.45169, 0.59258, 0.31935, 0.53776], [-0.23762, 0.46644, 0.74429, 0.56932], [0.28575, 0.99741, 0.25141, 0.6236], [0.52627, 0.54223, 0.3261, 0.48374], [0.080176, 0.85789, 0.21363, 0.51638], [-0.23987, 0.43766, 0.63868, 0.57025], [-0.28415, 0.6302, 0.24477, 0.4364], [0.17867, 0.8216, 0.83162, 0.8934], [-0.064158, -0.70314, 0.058563, -0.32584], [0.4221, 0.79168, 0.44053, 0.81041], [0.41589, 1.7381, 0.16762, 1.0665], [-0.3848, -0.3038, 0.24495, -0.048134], [0.31076, 1.5217, 0.26099, 1.0055], [0.30097, 0.6883, 0.5738, 0.82103], [0.66066, 1.0803, 0.26419, 0.90411], [0.66933, 1.135, 0.15554, 0.7138], [0.8999, 2.2464, 0.4163, 1.5377], [-0.49884, -0.69724, -0.068659, -0.21721], [0.61039, 0.88327, 0.4105, 0.64343], [0.64712, 1.1379, 0.67028, 1.0945], [0.15411, 0.46553, 0.73079, 0.73014], [-0.038978, 0.54513, 0.62061, 0.74302], [-0.23736, -0.50634, 0.4617, -0.17425], [0.41289, 0.81246, 0.54229, 0.81433], [0.70299, 2.6116, 1.0153, 1.9683], [0.64953, 2.9667, 1.0758, 2.1405], [-0.15121, 0.92054, 0.082175, 0.6071], [0.05421, 2.1346, 0.77757, 1.5008], [1.0051, 2.1752, 0.66966, 1.6374], [-0.13325, 0.99931, 0.61717, 0.62669], [0.097943, 1.4309, 0.46479, 0.93123], [0.091911, 0.47135, -0.025257, 0.26851], [0.23847, 0.79266, 0.81758, 0.8925], [-0.33015, -0.13021, 0.29566, 0.14499], [0.24362, 0.96691, 0.0047857, 0.62442], [0.58558, 0.86945, 0.0062893, 0.62574], [-0.20707, -0.17587, 0.12987, 0.13087], [-0.50823, -0.29214, 0.16229, -0.079485], [0.46844, 0.57283, 0.033199, 0.39609], [-0.3948, -0.19238, 0.037922, -0.089644], [-0.28145, 0.3764, 0.27105, 0.2601], [0.64706, 1.9816, 1.0337, 1.6438], [0.25553, 1.8628, 0.25644, 1.2447], [0.33822, 1.1535, 0.3486, 0.74831], [0.54178, 1.2928, 0.3517, 0.7679], [0.90291, 2.3898, 0.52364, 1.6704], [0.18547, 1.7778, 0.73696, 1.2457], [-0.16195, 0.74001, 0.29378, 0.48396], [0.44881, 0.93419, 0.024949, 0.58751], [0.61098, 1.6024, 0.42137, 0.98305], [0.25715, 1.161, 0.77004, 1.0797], [0.65374, 1.5118, 0.22, 1.0912], [-0.51706, -0.55735, 0.25689, -0.23406], [0.46665, 0.78934, 0.16726, 0.52419], [0.55468, 1.0335, 0.28285, 0.55481], [0.79751, 1.5749, 0.30205, 1.1013], [0.80277, 1.7745, 1.0135, 1.4358], [0.67732, 1.1172, 0.50175, 0.79888], [0.0053819, 1.9804, 0.82678, 1.5017], [-0.3435, -0.60837, 0.52843, -0.14408], [0.13498, 0.2598, 0.76025, 0.5488], [0.70788, 1.544, 0.86146, 1.3248], [0.37732, 2.4642, 0.64417, 1.7582], [0.085336, 1.119, 1.1075, 1.1307], [0.80743, 2.4437, 1.0246, 1.7283], [0.64869, 1.2556, 0.37783, 0.77291], [-0.31386, -0.53936, 0.42208, -0.20252], [0.97199, 2.2344, 0.48442, 1.4878], [-0.46535, -0.60805, -0.010034, -0.19768], [0.438, 0.046909, 0.46402, 0.23186], [0.71776, 2.238, 0.36059, 1.5499], [0.28845, 0.69192, 0.70843, 0.8337], [0.57976, 1.1089, 0.32307, 0.70691], [0.53814, 0.75686, 0.19852, 0.47278], [0.62352, 1.4506, 0.59546, 1.226], [-0.29917, -0.059744, 0.63055, 0.20975], [0.63114, 0.93458, 0.1769, 0.67451], [0.26691, 0.75833, 0.044212, 0.47839], [0.49648, 0.48457, 0.090054, 0.41127], [-0.32391, 0.091461, 0.55098, 0.26798], [-0.33681, 0.26063, 0.61499, 0.50442], [0.40971, 1.3384, 0.050487, 0.81192], [0.61548, 1.4199, 0.17719, 0.95173], [0.58374, 0.95604, 0.28423, 0.66072], [0.57795, 1.2768, 0.18225, 0.83998], [0.28496, -0.0842, 0.20854, 0.084301], [-0.3747, -0.11894, 0.24276, 0.11165], [-0.33373, -0.24086, 0.1801, 0.089472], [0.95641, 2.5507, 0.78616, 1.8687], [0.50122, 0.53126, 0.54894, 0.60263], [-0.4726, -0.31496, 0.18084, -0.19452], [0.62276, 0.97056, 0.64486, 0.84198], [0.13325, -0.29396, -0.05026, -0.18389], [0.69128, 1.2821, 0.67456, 1.1476], [0.30199, 1.0715, 0.017025, 0.65515], [-0.11286, 0.98565, 0.54866, 0.63464], [0.82813, 2.2782, 0.40848, 1.5153], [-0.13368, 0.7014, 0.38533, 0.4023], [0.60886, 1.5189, 0.16434, 0.95367], [0.92089, 2.7203, 0.93285, 1.9657], [-0.37222, -0.06679, -0.079973, -0.013347], [-0.39796, -0.55198, 0.084334, -0.31522], [-0.36763, -0.33249, -0.05071, -0.17756], [-0.21434, 0.3262, 0.19076, 0.18855], [0.19575, 1.1935, 0.58932, 1.2265], [-0.26202, 0.55637, 0.35728, 0.39854], [0.15332, 1.5662, 0.77484, 1.2131], [0.44011, 0.60406, -0.064735, 0.41078], [-0.21593, 0.66612, 0.22611, 0.43718], [0.20859, 0.76617, 0.37345, 0.3992], [0.50912, 0.3966, 0.20699, 0.34188], [-0.031283, 0.1925, -0.053761, 0.1417], [-0.28204, -0.10074, 0.38402, 0.18736], [-0.58964, -0.29935, 0.33311, 0.027537], [0.88546, 1.2284, 0.25924, 0.8879], [0.040678, 1.4851, 0.58807, 0.96463], [0.20509, 1.4882, 0.43368, 0.85348], [-0.49544, -0.6201, 0.14171, -0.26038], [-0.31769, 0.10247, 0.16242, 0.095681], [0.60111, 1.3877, 0.85075, 1.2239], [-0.3867, -0.22101, 0.56634, 0.16638], [0.52524, 1.0415, 0.38654, 0.96655], [0.48275, 0.58587, 0.14846, 0.33908], [0.75425, 1.3246, 0.33598, 0.92896], [-0.44143, -0.24609, 0.10783, -0.16173], [-0.23446, 1.5337, 0.79157, 1.1857], [0.9667, 1.6295, 0.075053, 1.0373], [-0.32925, 0.26909, 0.29677, 0.23286], [0.33737, 0.68959, 0.47227, 0.78243], [-0.31345, 0.50882, 0.058283, 0.30071], [0.43753, 1.1213, 0.21427, 0.71648], [0.38234, 0.87072, 0.88928, 0.97219], [0.6354, 1.2004, 0.9331, 1.0636], [-0.14217, -0.48974, -0.13459, -0.25669], [-0.42223, -0.18246, 0.10965, -0.030542], [-0.45035, -0.045689, 0.15989, 0.045262], [-0.16223, 0.93217, 0.43057, 0.67314], [-0.34624, -0.19933, 0.20394, -0.049043], [0.86778, 1.1208, 0.40002, 0.82147], [0.50832, 0.35053, 0.51786, 0.25356], [-0.060572, 0.26046, 0.76718, 0.57211], [-0.32605, 0.72925, 0.54922, 0.59444], [0.61985, 2.6412, 0.54075, 1.8754], [0.80061, 1.221, 0.41095, 0.9273], [-0.35577, 0.59745, 0.11906, 0.46607], [0.59531, 1.5501, 0.27443, 1.0187], [-0.39129, 0.2496, 0.3196, 0.23011], [0.51867, 1.1115, 0.073032, 0.71625], [0.89443, 3.116, 0.89475, 2.1037], [0.087572, 1.1311, 0.6276, 0.6787], [-0.68112, -0.31536, 0.17573, 0.091953], [0.50952, 1.6052, 0.91131, 1.3588], [-0.064108, 0.45964, 0.59968, 0.68542], [0.51007, 1.3865, 1.1168, 1.2738], [0.7721, 0.88792, 0.58001, 0.73769], [0.58542, 1.7717, 0.19226, 1.1463], [0.63589, 1.0056, 0.43681, 0.75194], [-0.17008, 0.40048, 0.049677, 0.23186], [-0.12291, 0.68483, 0.23839, 0.43706], [-0.41858, -0.67406, 0.30923, -0.30678], [0.010154, 0.31004, 0.49175, 0.59843], [0.52004, 1.3945, 0.32331, 0.8657], [0.40684, 0.10811, 0.11942, 0.11248], [0.25013, 2.009, 1.0136, 1.4514], [0.21988, 0.036402, -0.041039, 0.081192], [0.22994, 2.1845, 0.99144, 1.56], [-0.20366, 0.58519, 0.14173, 0.40428], [0.93143, 2.4807, 0.60219, 1.7193], [0.87247, 1.3469, 0.7783, 1.0992], [0.88916, 1.2884, 0.49838, 0.92212], [0.62222, 0.93489, 0.056703, 0.6498], [0.64194, 0.95641, 0.34092, 0.76238], [-0.4191, -0.37382, 0.41394, -0.047347]], "support_vector_labels": [[1.0], [1.0], [1.0], [1.0], [1.0], [1.0], [1.0], [1.0], [1.0], [1.0], [1.0], [1.0], [1.0], [1.0], [1.0], [1.0], [1.0], [1.0], [1.0], [1.0], [1.0], [1.0], [1.0], [1.0], [1.0], [1.0], [1.0], [1.0], [1.0], [1.0], [1.0], [1.0], [1.0], [1.0], [1.0], [1.0], [1.0], [1.0], [1.0], [1.0], [1.0], [1.0], [1.0], [1.0], [1.0], [1.0], [1.0], [1.0], [1.0], [1.0], [1.0], [1.0], [1.0], [1.0], [1.0], [1.0], [1.0], [1.0], [1.0], [1.0], [1.0], [1.0], [1.0], [1.0], [1.0], [1.0], [1.0], [1.0], [1.0], [1.0], [1.0], [1.0], [1.0], [1.0], [1.0], [1.0], [1.0], [1.0], [1.0], [1.0], [1.0], [1.0], [1.0], [1.0], [1.0], [1.0], [1.0], [1.0], [1.0], [1.0], [1.0], [1.0], [1.0], [1.0], [1.0], [1.0], [1.0], [1.0], [1.0], [1.0], [1.0], [1.0], [1.0], [1.0], [1.0], [1.0], [1.0], [1.0], [1.0], [1.0], [1.0], [1.0], [1.0], [1.0], [1.0], [1.0], [1.0], [1.0], [1.0], [1.0], [1.0], [1.0], [1.0], [1.0], [1.0], [1.0], [1.0], [1.0], [1.0], [1.0], [1.0], [1.0], [1.0], [1.0], [1.0], [1.0], [1.0], [1.0], [1.0], [1.0], [1.0], [1.0], [1.0], [1.0], [1.0], [1.0], [1.0], [1.0], [1.0], [1.0], [1.0], [1.0], [1.0], [1.0], [1.0], [1.0], [1.0], [1.0], [1.0], [1.0], [1.0], [1.0], [1.0], [1.0], [1.0], [1.0], [1.0], [1.0], [1.0], [1.0], [1.0], [1.0], [1.0], [1.0], [1.0], [1.0], [1.0], [1.0], [1.0], [1.0], [1.0], [1.0], [1.0], [1.0], [1.0], [1.0], [1.0], [1.0], [1.0], [1.0], [1.0], [1.0], [1.0], [1.0], [1.0], [1.0], [1.0], [1.0], [1.0], [1.0], [1.0], [1.0], [1.0], [1.0], [1.0], [1.0], [1.0], [1.0], [1.0], [1.0], [1.0], [1.0], [1.0], [1.0], [1.0], [1.0], [1.0], [1.0], [1.0], [1.0], [1.0], [1.0], [1.0], [1.0], [1.0], [1.0], [1.0], [1.0], [1.0], [1.0], [1.0], [1.0], [1.0], [1.0], [1.0], [1.0], [1.0], [1.0], [1.0], [1.0], [1.0], [1.0], [1.0], [1.0], [1.0], [1.0], [1.0], [1.0], [1.0], [1.0], [1.0], [1.0], [1.0], [1.0], [1.0], [1.0], [1.0], [1.0], [1.0], [1.0], [1.0], [1.0], [1.0], [1.0], [1.0], [1.0], [1.0], [1.0], [1.0], [1.0], [1.0], [1.0], [1.0], [1.0], [1.0], [1.0], [1.0], [1.0], [1.0], [1.0], [1.0], [1.0], [1.0], [1.0], [1.0], [1.0], [1.0], [1.0], [1.0], [1.0], [1.0], [1.0], [1.0], [1.0], [1.0], [1.0], [1.0], [1.0], [1.0], [1.0], [1.0], [1.0], [1.0], [1.0], [-1.0], [-1.0], [-1.0], [-1.0], [-1.0], [-1.0], [-1.0], [-1.0], [-1.0], [-1.0], [-1.0], [-1.0], [-1.0], [-1.0], [-1.0], [-1.0], [-1.0], [-1.0], [-1.0], [-1.0], [-1.0], [-1.0], [-1.0], [-1.0], [-1.0], [-1.0], [-1.0], [-1.0], [-1.0], [-1.0], [-1.0], [-1.0], [-1.0], [-1.0], [-1.0], [-1.0], [-1.0], [-1.0], [-1.0], [-1.0], [-1.0], [-1.0], [-1.0], [-1.0], [-1.0], [-1.0], [-1.0], [-1.0], [-1.0], [-1.0], [-1.0], [-1.0], [-1.0], [-1.0], [-1.0], [-1.0], [-1.0], [-1.0], [-1.0], [-1.0], [-1.0], [-1.0], [-1.0], [-1.0], [-1.0], [-1.0], [-1.0], [-1.0], [-1.0], [-1.0], [-1.0], [-1.0], [-1.0], [-1.0], [-1.0], [-1.0], [-1.0], [-1.0], [-1.0], [-1.0], [-1.0], [-1.0], [-1.0], [-1.0], [-1.0], [-1.0], [-1.0], [-1.0], [-1.0], [-1.0], [-1.0], [-1.0], [-1.0], [-1.0], [-1.0], [-1.0], [-1.0], [-1.0], [-1.0], [-1.0], [-1.0], [-1.0], [-1.0], [-1.0], [-1.0], [-1.0], [-1.0], [-1.0], [-1.0], [-1.0], [-1.0], [-1.0], [-1.0], [-1.0], [-1.0], [-1.0], [-1.0], [-1.0], [-1.0], [-1.0], [-1.0], [-1.0], [-1.0], [-1.0], [-1.0], [-1.0], [-1.0], [-1.0], [-1.0], [-1.0], [-1.0], [-1.0], [-1.0], [-1.0], [-1.0], [-1.0], [-1.0], [-1.0], [-1.0], [-1.0], [-1.0], [-1.0], [-1.0], [-1.0], [-1.0], [-1.0], [-1.0], [-1.0], [-1.0], [-1.0], [-1.0], [-1.0], [-1.0], [-1.0], [-1.0], [-1.0], [-1.0], [-1.0], [-1.0], [-1.0], [-1.0], [-1.0], [-1.0], [-1.0], [-1.0], [-1.0], [-1.0], [-1.0], [-1.0], [-1.0], [-1.0], [-1.0], [-1.0], [-1.0], [-1.0], [-1.0], [-1.0], [-1.0], [-1.0], [-1.0], [-1.0], [-1.0], [-1.0], [-1.0], [-1.0], [-1.0], [-1.0], [-1.0], [-1.0], [-1.0], [-1.0], [-1.0], [-1.0], [-1.0], [-1.0], [-1.0], [-1.0], [-1.0], [-1.0], [-1.0], [-1.0], [-1.0], [-1.0], [-1.0], [-1.0], [-1.0], [-1.0], [-1.0], [-1.0], [-1.0], [-1.0], [-1.0], [-1.0], [-1.0], [-1.0], [-1.0], [-1.0], [-1.0], [-1.0], [-1.0], [-1.0], [-1.0], [-1.0], [-1.0], [-1.0], [-1.0], [-1.0], [-1.0], [-1.0], [-1.0], [-1.0], [-1.0], [-1.0], [-1.0], [-1.0], [-1.0], [-1.0], [-1.0], [-1.0], [-1.0], [-1.0], [-1.0], [-1.0], [-1.0], [-1.0], [-1.0], [-1.0], [-1.0], [-1.0], [-1.0], [-1.0], [-1.0], [-1.0], [-1.0], [-1.0], [-1.0], [-1.0], [-1.0], [-1.0], [-1.0], [-1.0], [-1.0], [-1.0], [-1.0], [-1.0], [-1.0], [-1.0], [-1.0], [-1.0], [-1.0], [-1.0], [-1.0], [-1.0], [-1.0], [-1.0], [-1.0], [-1.0], [-1.0], [-1.0], [-1.0], [-1.0], [-1.0], [-1.0], [-1.0], [-1.0], [-1.0], [-1.0]], "sigma": 0.3}