{"weights": [0.06514530368299644, 0.2352473731269387, 0.45533273683300013, 0.029050084127235056, 1.739085222650407, 0.7892054840669834, 0.7221838704983511, 1.1738926649430426, 1.5258963366089053, 1.618436079156996, 1.7823121584522956, 0.6158534900437851, 1.068482801259887, 0.26469849253208755, 1.2511311000144933, 0.09006420386130606, 0.5821923262478835, 0.3060154270277408, 0.6267342625181028, 0.28438691239669805, 0.12024898284765313, 0.025509965795862725, 0.019773685456598016, 0.0030341569332194315, 0.016081695756626085, 0.08592297876465725, 0.4996411984243528, 0.27862001574031403, 0.09464585595546675, 0.7436452176337113, 0.5659840758845811, 0.11792432694820312, 0.8502054106304962, 0.06305315776028472, 1.7023322659223021, 0.2133587047524362, 0.3062935018735463, 0.4024151712422303, 0.7606736998776317, 0.17650893417673744, 0.9587781207093845, 0.15419060468381043, 0.6583555211799573, 0.5099823339432242, 0.059586188810316666, 2.3012408410940965, 0.98492254573321, 0.0556495376747635, 0.04006970739172566, 0.25132678029317396, 0.23239511311629127, 0.21685056540169187, 0.4902984286851975, 1.9641754319525448, 0.30097799759908717, 0.25978726212382375, 0.7557794392759953, 0.37906803639865155, 0.3390150229604997, 0.462293170821103, 1.641674221489652, 0.2230702479852258, 1.1843645741360078, 0.5162367298808924, 0.14542429272402957, 1.370491444866929, 0.45434335400580156, 0.0543687579756362, 0.6531586731606783, 0.014468283717992683, 2.1607459270776057, 1.0583579864320911, 0.30746939154453246, 0.058752074381434476, 0.3955583261098514, 0.028070337123373718, 0.2901065158682617, 2.0893515212835116, 0.24200668770925982, 0.832088262687322, 0.896991291809834, 0.4795931746306805, 0.026280580801343652, 0.9070708607260198, 0.14771912121408148, 0.5117037034680293, 0.06832337942583273, 0.10199478306354172, 0.7810913168098687, 0.5536333076814226, 0.4798225629342836, 0.007163664202491449, 1.176639487536096, 1.0534291628065455, 0.5516170997367619, 0.5446146951993033, 1.5288946120117974, 0.523447890690362, 0.2282289640365881, 0.05705554635036656, 0.03858924398941648, 0.005098708867489761, 0.12133119808552303, 0.021118371371481117, 0.3845146600377355, 1.5426452544025506, 0.16163584714139415, 0.07282925840490144, 2.580122905036919, 0.13970927767639169, 0.42382658773872023, 0.11970681988826522, 0.1611158855373649, 0.11986820434819062, 0.14047208898550442, 0.3668145615620188, 0.34917760458362473, 1.2881064277170344, 0.2672589207044595, 0.09008552867740074, 0.0011452244211867843, 0.001556917563751891, 0.4463812030415062, 0.0035839916112339596, 1.0290634706725412, 0.11358646875949113, 0.01665420355214672, 0.44923010552015413, 0.24023616760450608, 0.023894290384157257, 1.4759966073382107, 0.6747901004610513, 0.021463914701845922, 0.1570057322225022, 0.054342538861399184, 0.5389033590033231, 1.7231189954078154, 0.4810047587912972, 0.41189083838514773, 0.007261429819616781, 0.17572004262460053, 0.7911058545560217, 0.7802873044370183, 0.00787356650571114, 0.7377882700551668, 0.6507490373741552, 0.39001412112751666, 0.4113050405273788, 0.07096151126481581, 0.10435052566441742, 0.021594634048082952, 0.15036506148313755, 0.1321122574857303, 0.4174136755096523, 0.21102953994637222, 0.7317020084154082, 2.5743709382529505, 0.03116458853532044, 0.11706876931874402, 0.4125171314435217, 0.1610562778698933, 0.005441759872420378, 0.05183913119653376, 0.12627259486057085, 0.990294231116318, 0.44300696124042954, 0.20850938008326098, 0.4232496729090011, 0.3425701194916539, 0.7993007722032947, 0.6110856315598442, 0.5902258692585668, 0.1005122770434485, 1.1090237253135795, 0.04421497326697881, 0.07586472051020643, 0.3799262918645213, 0.16136698339796768, 0.6473634427224649, 0.3800365540269355, 2.616455303063062, 1.3080631273575023, 1.3570777455286507, 0.11559671512357268, 0.14357501952191531, 2.300608275331573, 0.421090064903738, 0.17514799309527868, 1.4746608793427618, 0.21742165199180305, 0.06066229004658168, 0.12112121502936721, 0.564137610998572, 1.828071484298975, 1.2097296691803077, 1.0733573382707808, 0.051970382712186645, 0.9364494522858258, 1.3921538387688186, 0.480229468953074, 1.4303191023814679, 0.7572229541055808, 0.5001447634556593, 0.24831565343119671, 0.6619512185982648, 0.6279957031954411, 0.19215547529833385, 1.067450288114852, 0.7213985631560208, 0.2809353104421759, 4.289692667226448e-05, 0.25696653710726436, 0.045896975961697735, 0.23780661691046118, 0.01810091964670464, 0.14718510715149374], "support_vector_labels": [[1.0], [1.0], [1.0], [1.0], [1.0], [1.0], [1.0], [1.0], [1.0], [1.0], [1.0], [1.0], [1.0], [1.0], [1.0], [1.0], [1.0], [1.0], [1.0], [1.0], [1.0], [1.0], [1.0], [1.0], [1.0], [1.0], [1.0], [1.0], [1.0], [1.0], [1.0], [1.0], [1.0], [1.0], [1.0], [1.0], [1.0], [1.0], [1.0], [1.0], [1.0], [1.0], [1.0], [1.0], [1.0], [1.0], [1.0], [1.0], [1.0], [1.0], [1.0], [1.0], [1.0], [1.0], [1.0], [1.0], [1.0], [1.0], [1.0], [1.0], [1.0], [1.0], [1.0], [1.0], [1.0], [1.0], [1.0], [1.0], [1.0], [1.0], [1.0], [1.0], [1.0], [1.0], [1.0], [1.0], [1.0], [1.0], [1.0], [1.0], [1.0], [1.0], [1.0], [1.0], [1.0], [1.0], [1.0], [1.0], [1.0], [1.0], [1.0], [1.0], [1.0], [1.0], [1.0], [1.0], [1.0], [1.0], [1.0], [-1.0], [-1.0], [-1.0], [-1.0], [-1.0], [-1.0], [-1.0], [-1.0], [-1.0], [-1.0], [-1.0], [-1.0], [-1.0], [-1.0], [-1.0], [-1.0], [-1.0], [-1.0], [-1.0], [-1.0], [-1.0], [-1.0], [-1.0], [-1.0], [-1.0], [-1.0], [-1.0], [-1.0], [-1.0], [-1.0], [-1.0], [-1.0], [-1.0], [-1.0], [-1.0], [-1.0], [-1.0], [-1.0], [-1.0], [-1.0], [-1.0], [-1.0], [-1.0], [-1.0], [-1.0], [-1.0], [-1.0], [-1.0], [-1.0], [-1.0], [-1.0], [-1.0], [-1.0], [-1.0], [-1.0], [-1.0], [-1.0], [-1.0], [-1.0], [-1.0], [-1.0], [-1.0], [-1.0], [-1.0], [-1.0], [-1.0], [-1.0], [-1.0], [-1.0], [-1.0], [-1.0], [-1.0], [-1.0], [-1.0], [-1.0], [-1.0], [-1.0], [-1.0], [-1.0], [-1.0], [-1.0], [-1.0], [-1.0], [-1.0], [-1.0], [-1.0], [-1.0], [-1.0], [-1.0], [-1.0], [-1.0], [-1.0], [-1.0], [-1.0], [-1.0], [-1.0], [-1.0], [-1.0], [-1.0], [-1.0], [-1.0], [-1.0], [-1.0], [-1.0], [-1.0], [-1.0], [-1.0], [-1.0], [-1.0], [-1.0], [-1.0], [-1.0], [-1.0], [-1.0], [-1.0], [-1.0], [-1.0]], "support_vectors": [[0.70042, 0.22795, 0.32396], [0.53123, 0.39368, 0.62204], [-0.30066, -0.12596, -0.38072], [-0.61342, 0.11881, 0.54217], [0.92724, 0.010024, -0.29117], [1.1645, 0.30088, 0.1577], [0.79808, 0.27861, 0.3065], [0.012224, 0.52537, 0.45355], [0.63469, -0.20411, -0.18514], [-0.28265, 0.079111, -0.10336], [1.2289, 0.418, 0.22098], [-0.12355, -0.11732, -0.38742], [-0.11646, 0.13008, -0.21694], [0.93562, 0.098477, 0.081857], [-0.32514, -0.051442, 0.25118], [0.32905, -0.19437, -0.13639], [0.61995, 0.17676, 0.24742], [0.23504, 0.16922, -0.37509], [0.90288, 0.07131, -0.050836], [0.51199, 0.10846, -0.11565], [-0.80188, -0.33282, -0.37467], [-0.40404, -0.0071272, -0.2329], [0.38736, -0.16094, -0.10479], [-0.24726, -0.067688, 0.58928], [-0.045048, 0.31272, 0.47649], [-0.58591, -0.26552, -0.39506], [0.57961, 0.10181, 0.12497], [-1.1043, -0.39056, -0.46304], [-0.63342, -0.41074, -0.77171], [0.71498, -0.1056, -0.0082534], [0.16892, -0.26254, 0.31676], [-1.2035, -0.29801, -0.34388], [0.40207, 0.06369, 0.24578], [0.92262, 0.17349, -0.13354], [-0.50023, -0.094096, -0.0042595], [0.54301, 0.13036, 0.22747], [0.11771, 0.48318, 0.71297], [0.82513, 0.26954, -0.13936], [1.0312, 0.49572, 0.64536], [0.36822, 0.31097, 0.57213], [0.66765, -0.1784, -0.26101], [0.1308, -0.033283, 0.32403], [-0.31027, -0.34635, -0.54124], [0.82474, 0.3156, 0.3535], [-0.87756, -0.41645, -0.54689], [0.21373, -0.23169, -0.14879], [-0.62478, -0.39796, -0.48874], [1.0086, 0.24099, 0.036429], [-0.11747, 0.25165, 0.41632], [0.92586, 0.46415, 0.54927], [-0.30118, 0.042955, 0.25756], [-0.94395, -0.32861, 0.11119], [-0.52417, -0.27069, -0.41972], [0.52818, 0.19794, 0.29991], [-0.47054, -0.089945, -0.29111], [-0.95176, -0.33634, 0.062129], [-0.76266, -0.48353, -0.64197], [0.19043, -0.30332, -0.39982], [1.1938, 0.34754, 0.19303], [0.057456, -0.3859, -0.5632], [0.76151, 0.24919, 0.087479], [-0.67822, -0.23561, 0.18422], [1.0857, 0.20629, 0.086666], [0.40637, 0.16315, -0.2693], [0.54681, -0.20076, -0.32673], [-0.057167, 0.23105, -0.19397], [-0.099759, 0.054427, 0.3877], [-0.52765, -0.14853, 0.26516], [0.20294, -0.038911, 0.26044], [0.85826, 0.18216, -0.32367], [1.288, 0.49038, 0.40224], [0.30001, -0.32321, -0.2979], [0.62795, 0.29257, 0.45203], [0.37115, 0.39213, 0.79454], [0.46799, -0.0096009, 0.05711], [-0.70737, -0.25693, 0.21145], [-0.47236, -0.2069, -0.39666], [-0.61076, -0.20381, -0.18567], [0.35503, -0.20068, 0.16917], [-0.042871, -0.36551, -0.51765], [-0.047727, 0.083615, -0.28131], [0.2981, -0.31682, -0.67898], [-0.54419, -0.40974, -0.7011], [0.41893, 0.06885, -0.15433], [0.39146, -0.26188, -0.46572], [0.38994, 0.34582, 0.58758], [0.54213, -0.18475, -0.39378], [-0.010989, -0.26154, -0.45964], [-0.28904, 0.11545, -0.060143], [0.88435, 0.42423, 0.47277], [-0.28242, -0.42452, -0.74451], [-0.6543, -0.23795, 0.23745], [0.70598, 0.43393, 0.53228], [0.17433, -0.10805, 0.24074], [-0.66747, -0.29252, 0.3229], [-1.1058, -0.42997, -0.22794], [0.19852, 0.15163, 0.38913], [-0.23491, 0.27781, 0.25056], [1.1411, 0.4327, 0.32986], [0.79144, 0.78761, 0.43196], [2.1613, 1.2962, 0.47292], [2.0147, 0.82292, 0.4886], [1.6586, 0.66702, 0.40641], [1.2756, 0.0051137, -0.11972], [0.62292, 0.35851, 0.10094], [0.0019921, -0.1664, -0.16389], [0.3786, -0.59736, -0.25969], [0.20958, -0.801, -0.47861], [-0.12084, 0.059059, -0.080502], [1.681, 0.58956, 0.37317], [-0.35854, -0.19869, -0.13236], [2.1333, 0.92482, 0.24511], [1.6805, 0.47708, 0.29942], [0.96388, -0.45189, -0.43449], [-0.29928, -1.0232, -0.65942], [1.493, 0.30681, 0.17114], [-0.73202, -0.80792, -0.42466], [-0.50192, -0.28778, -0.11174], [0.45056, 0.58597, 0.35228], [2.2042, 0.98741, 0.63991], [1.5537, 1.0067, 0.57848], [-0.31997, -0.60875, -0.39266], [0.1548, 0.083752, 0.09762], [2.0627, 0.76223, 0.40061], [0.70492, -0.3679, -0.3068], [-0.5813, -0.628, -0.36019], [1.7964, 0.4746, 0.0092935], [1.436, 0.30458, 0.035821], [2.0488, 1.3402, 0.75986], [2.2785, 1.1365, 0.39235], [0.43841, 0.24054, 0.156], [0.28738, 0.17157, -0.029175], [0.98817, 0.68598, 0.32672], [0.26523, -0.69664, -0.44228], [1.1527, 0.76692, 0.39738], [-0.34395, -0.6763, -0.48721], [1.3638, 0.19046, 0.18966], [-0.80647, -0.95239, -0.50754], [1.3353, 0.12589, 0.042278], [2.1971, 0.88844, 0.4117], [0.14179, -0.59827, -0.22156], [-0.22442, -0.097769, 0.072044], [-0.015499, -0.46509, -0.24203], [0.35978, -0.62435, -0.35623], [0.31959, 0.16749, 0.028055], [1.0923, 0.67582, 0.26444], [0.17383, -0.61308, -0.31933], [0.45169, 0.47153, 0.34749], [0.97627, -0.27345, -0.28612], [0.14141, -0.0028523, -0.074778], [1.2369, 0.71807, 0.28873], [-0.28576, -0.72338, -0.50723], [0.50461, -0.55242, -0.35702], [-0.59862, -0.5314, -0.27591], [2.4801, 1.1643, 0.61303], [0.77774, -0.31365, -0.17831], [0.72545, 0.40793, 0.26376], [2.0218, 0.65218, 0.35367], [2.3168, 0.95914, 0.46363], [2.5155, 1.3745, 0.55538], [-0.40429, -1.237, -0.62036], [2.3781, 1.0711, 0.51871], [-0.74794, -0.94362, -0.30061], [1.3917, 1.1416, 0.62227], [-0.53388, -0.41277, -0.24429], [0.27754, -0.63562, -0.38967], [-0.20825, -0.31648, -0.22691], [-0.64625, -0.67908, -0.37179], [0.12013, 0.22682, 0.14288], [1.019, 0.72815, 0.43173], [0.94609, -0.22654, -0.21029], [0.47386, -0.5301, -0.27853], [-0.74259, -0.99265, -0.55894], [0.082856, -0.020835, -0.12784], [0.098795, 0.15007, -0.049877], [-0.086596, -0.90878, -0.56127], [0.86377, 0.58265, 0.24733], [-0.056028, -1.069, -0.59042], [0.021864, 0.11487, 0.11306], [0.86744, 0.59711, 0.28596], [0.60516, 0.29652, 0.14751], [1.2627, 0.63649, 0.19595], [0.23281, 0.26292, 0.25947], [1.9371, 0.48192, 0.30158], [1.6669, 1.2996, 0.63782], [-0.46344, -0.24073, -0.17643], [1.219, 0.9345, 0.61763], [1.2348, 0.82418, 0.46668], [0.63266, -0.38148, -0.16941], [0.59405, -0.57186, -0.43729], [2.0423, 0.64825, 0.27497], [1.7619, 1.2623, 0.71402], [0.76031, 0.6381, 0.39079], [0.32979, 0.32035, 0.32945], [0.83077, -0.28067, -0.01747], [0.19967, 0.063882, -0.084781], [1.9058, 1.3413, 0.6505], [0.0059524, -0.097901, 0.10388], [1.1167, -0.013671, -0.03851], [-0.1015, 0.077506, 0.015398], [-0.32712, -0.14533, -0.028631], [1.0922, -0.14908, 0.12326], [-0.61239, -0.51013, -0.22464], [0.66602, 0.66022, 0.39713], [0.20972, 0.041045, -0.042121], [1.4215, 0.64343, 0.25916], [-0.5552, -1.1815, -0.63951], [1.0485, -0.098465, -0.13908], [-0.20388, -0.053009, 0.054902], [-0.24444, -0.36124, -0.2543], [1.78, 0.3114, 0.009177], [-0.087544, -0.55727, -0.32533], [1.8475, 0.36505, 0.077274], [0.48366, 0.4149, 0.3141], [0.11121, -0.94259, -0.50003], [-0.51244, -0.74012, -0.49]], "sigma": 0.3, "kernel": "gaussian", "bias": 0.0}