{"weights": [0.33928312278306283, 2.324315238569607e-05, 0.28223608269812495, 0.7179236045038446, 13.414975824684959, 3.55372122974356, 0.16186899454422093, 1.8361712657260518, 1.8857965884789887e-05, 0.0012824261079235656, 0.0005274813095670231, 0.0008632047636596591, 1.0303997587076137e-05, 3.3756062822466237, 4.3938432199501305, 5.048344154615618, 0.07752397859685568, 0.12681701494446557, 0.2729459226931661, 0.07602926917525779, 0.284941423970912, 1.592197406646296e-05, 0.14313182434289684, 1.0417961985908933e-05, 2.0073339621500565, 0.11907819273071138, 0.032996472998466746, 0.4166575498709354, 4.536360383806162e-05, 2.4767701300020716e-05, 1.4103943445536643e-05, 3.821159843272878, 0.672739763815322, 0.0007699547957516419, 3.276293750975885e-05, 0.232243516107594, 0.00013463970370120048, 4.452033714262651, 1.253437848700029, 0.9090251355237337, 0.8757536541449672, 0.08648786795418877, 1.0089204257959536e-05, 3.9070080264433704, 0.32773243475937774, 1.097645625420469e-05, 2.7490400505820025, 1.0627078905496576, 2.988747332472906, 2.471052127694473e-05, 0.03305324798985766, 1.04105945526779e-05, 7.120782131747259, 0.0190172222518282, 7.184224221143551, 0.3408000548623345, 0.08505479287280361, 0.0036721591928933744, 2.5847828989813845e-05, 2.65238412824571, 1.1264306823663772e-05, 2.0529619774298675, 0.5426874337806086, 3.364851704947257, 2.1096681446530988e-05, 3.383734466290593e-05, 0.09167286227601332, 0.08097377208731231, 4.5512398049605396e-05, 0.14563657048054388, 0.15499507348252645, 1.0106703129967635e-05, 0.22728415643164881, 0.6944495443495868, 1.4465717441487964e-05, 0.013189462733813714, 7.643797720622988, 3.748572122404156, 0.24252191410718532, 0.005966881671824092, 0.07634170303343507, 0.12478862409138196, 0.9657839022453977, 0.06608181524763719, 1.5321511127094044e-05, 1.4642510289515233e-05, 0.0040284931577418736, 0.01704528295069822, 0.5995444756568726, 1.0299063872331853, 0.13823337842670808, 1.8833756904076485e-05, 0.08217357188806991, 2.0623507311357577e-05, 2.747559367304397e-05, 0.12845516214303496, 2.2442199843777595, 0.13982634450650053, 0.1865353014672426, 0.02690769189644116, 0.01711136277121224, 2.9329917787293162e-05, 0.050898857772023506, 0.6994973760518648, 1.1805972635535225, 0.9157967731254547, 0.8117248726756493, 4.767724458968491, 1.5105396948295926, 0.9354205326497366, 1.9118434214394961, 1.0073088556865342e-05, 0.00017329276483658393, 1.7469828360242015, 0.7813447843343096, 0.062102687210570204, 0.00011212144883877368, 1.190640482379458e-05, 1.3529674498797029, 0.06254397315554366, 0.6349538721452778, 0.34648162576525104, 0.40536175912252587, 0.4033888290730452, 2.999272631679592, 3.8693464533603875e-05, 2.7831452948908675, 0.28980042372730747, 0.08430700538908817, 0.9373471700396665, 5.210349659115448, 1.5499722630199522, 3.137617520864969, 1.193652208800594e-05, 0.08495246771327566, 2.216718430665809e-05, 3.3356215007437386, 0.10699572707643515, 2.571472837899799e-05, 0.03143576991136348, 0.0011960576999452063, 0.9543821368455739, 0.47133779075762106, 0.0003873512624383231, 0.9497071755981455, 2.2686022175626293, 2.9890616864143398e-05, 0.10981968677775807, 3.978009463956764, 0.7431602805772904, 1.6041940727607809, 1.5565311750449692e-05, 0.00010406841931955891, 0.04743951284585136, 0.0008809679500144479, 0.15658103669071197, 1.707000397821413e-05, 3.6648367016371193, 0.24246954705723067, 0.05520163403920789, 0.988784598468703, 3.297570714684306, 2.1059383821316566, 0.01477867496931722, 0.000938603963894577, 1.9441166961680788e-05, 5.0988645936021976e-05, 3.650300112632881, 2.6709978737040028, 1.746680431565886e-05, 1.0141346610293076e-05, 0.21159567278167993, 0.0010047080189521925, 6.66002259562795e-05, 1.920143198354009, 3.3165867745835738, 3.2504862056204065, 0.05333390542042156, 0.2186993656963343, 0.5546718556373798, 0.17175259359599157, 5.4334702732621184e-05, 2.189659106960264e-05, 0.48858606458286896, 0.04234552159350377, 1.334707269294675, 6.503027395869404, 1.394478127679284e-05, 0.5379645276062239, 1.2753578284676725, 1.0665705574865536e-05, 1.4686898670255026, 0.6277811725724939, 1.2955742822818623e-05, 0.0716074404686883, 2.1070096927502035e-05, 5.816563006396092, 0.16290387300108855, 1.5857301451970263, 1.4853851576419327e-05, 0.02403996323217613, 5.28942315617529e-05, 0.5176178960649841, 3.409984080495485e-05, 1.8715241954012746e-05, 3.7151971318051267, 1.8751420643734185, 1.6562303179900288e-05, 0.0002785716496498999, 2.4422207903167898e-05, 2.839562102929281, 1.2160614357462107, 4.539454809466429, 0.0008991525504116318, 0.06601497105015555, 0.2333047919883814, 1.3825410804191714e-05, 1.0830566883652395e-05, 1.3530307105482565e-05, 0.0001493225638218386, 5.35742627939832, 7.806274894660222, 5.784956444153681e-05, 1.6624292743773554e-05, 0.7922482727799698, 0.13442292017466467, 0.023929447055479308, 0.6258319360191305, 0.011585075200250984, 0.4539040494564295, 0.33261664830383775, 2.7877293883315084, 6.897886946875944, 1.4762847599718363e-05, 2.62422955595351, 4.112429925703975, 0.2921586900728163, 0.1700159696071442, 4.585987502748471, 5.423443384634059, 0.7887332518531042, 1.005141263616603e-05, 4.171538825628603, 0.3880134199461849, 5.095089134066649, 5.174082377980223, 2.2019339161787648, 0.00763135684078939, 1.4650331020110862e-05, 2.3682010793764233e-05, 1.8115160467251212, 9.610890297818484, 1.7424596262781026e-05, 0.5711543724815255, 1.0570765992402429, 6.042174925248161, 1.2370427511146602, 0.550185246325877, 2.635696003837485, 2.1884111887055417, 3.428426748360277, 0.640177669572377, 0.3874796734364855, 2.740113835672058, 0.015496015037152576, 10.02377946032728, 5.819625916460524, 2.5237424977691973, 2.039545746910181e-05, 1.1376882919082294, 5.958408030971158, 0.2261235659095296, 1.9638874111433222, 0.2719014193300288, 1.5602835907972925, 0.7303747665569997, 1.0950541603766129, 0.5508143802919979, 0.003368946317753846, 0.04648423762331524, 0.7892100856208758, 1.2856292610457838, 3.3801167448686904, 0.30110086658181645, 2.701017162898423, 2.542740406310211, 1.558347774474876, 1.481273351274154, 6.744228770780188, 0.5836011536862152, 0.8097983120004654, 2.8838569011857755, 2.3530246127986496, 1.0813417377005365, 0.18904299549874992, 0.29151893966967907, 1.893232788996462, 1.5569239058950346, 0.1770166966815619, 2.1606829785970403, 4.4962270818269685, 0.033299024940610426, 3.0662750183051712, 1.8820541329413212, 3.5897864429851825, 0.22638968060612305, 0.22189809790506193, 0.6878188725574512, 0.08018368391978607, 3.9716193849942116, 2.794923331866669, 6.362868060474187, 0.15564730925134576, 1.3158991336410262, 4.092934647104876, 4.615859786728942, 2.95790735697714, 4.413091369502084, 0.6819091548437763, 1.1972949316870212, 0.8615806599553643, 0.317376579488308, 0.15181011755360638, 1.4681908854081272e-05, 1.4938201939624118, 2.359147621382034, 10.001788102405044, 3.7225404432929308, 1.2977408265725345, 0.7000650052088798, 0.43160865960543915, 0.3454715085024184, 1.2805193937961252, 0.5518455185498147, 5.009080131908717, 8.541519541313439e-05, 4.780374086719562, 1.3803497257948911, 3.0576807157665646, 5.273520325176685, 2.8681822638753394, 1.7382680901261658, 0.33124845711451667, 0.9653407983176602, 1.0225682183415539, 0.3713998019396461, 4.258254961643932, 2.311647341619844, 1.222575120076736, 0.5306022009837177, 0.02387625947746936, 1.6303090733314793, 0.6095853675523383, 5.686291579786031, 6.562467026294361, 0.8127345822543306, 1.779742544861039, 0.07220341357196888, 0.5380561593625195, 2.2548510812131256e-05, 3.4203544267662838, 3.6409666741428994, 2.19358559184197, 2.755003295751135, 2.4894035825207372, 0.9156480084299475, 1.6847787616047563, 0.45621348820912344, 1.9361632934378719, 1.3084386506528942, 1.5862502041786792, 0.40785630853549243, 1.540621991667475e-05, 3.4057945058041774, 0.10066995549037674, 2.539922103933357e-05, 0.7984218273878579, 7.911846971053483, 1.2111418357476849, 1.6749792624208593, 0.07514159782813234, 8.35085646792146, 4.0179689165636825, 0.346534042240771, 0.15182057949989924, 0.20550688299605563, 4.19296412172731, 5.495567891117024, 1.7916615436293406, 3.962864904149742, 1.2818399110457055, 3.8310312434408527, 1.7560581778499647, 1.0306736297861412], "sigma": 0.3, "bias": 0.0, "support_vectors": [[0.41979, -0.26311, -0.089622], [-0.74419, -1.2449, -1.3013], [-0.6557, -0.77419, -0.88419], [0.43463, 1.2691, 1.2128], [0.055137, 0.78318, 0.74101], [0.37159, 0.94469, 0.94088], [0.92323, -0.11917, 0.21934], [0.49489, 1.0235, 1.0536], [-0.86369, -0.94878, -1.1154], [0.80372, 0.87694, 1.0122], [-0.89173, -1.0753, -1.2324], [0.50261, -0.1215, 0.066553], [1.1053, 0.73479, 1.0247], [-0.19416, 0.42999, 0.28275], [0.10603, 1.1378, 1.032], [0.41499, 0.62577, 0.65331], [1.2656, 1.216, 1.4447], [-0.3174, 0.49055, 0.28724], [-1.2114, -0.49073, -0.83372], [-1.2247, -1.069, -1.3691], [0.41785, -0.27773, -0.12871], [-0.93917, -1.1958, -1.3322], [1.3227, 1.4509, 1.714], [-0.98041, -0.97279, -1.1716], [0.6457, 1.4801, 1.4828], [-1.2463, -1.3366, -1.4815], [1.0686, 0.56823, 0.8348], [-0.26548, 0.52359, 0.33497], [-0.75969, -1.3127, -1.3443], [-0.61147, -1.2581, -1.2831], [-0.5943, -1.2621, -1.2221], [0.54494, 0.82548, 0.90427], [-0.43402, 0.44004, 0.22344], [0.75297, 0.75542, 0.88545], [-0.86284, -1.1893, -1.3135], [0.50418, 0.8222, 0.84686], [-0.90349, -1.2275, -1.3815], [0.10201, 1.0725, 0.96908], [0.034205, -0.57534, -0.46483], [1.2775, 1.7972, 1.9984], [0.027368, 0.84526, 0.72011], [0.99055, 0.8609, 1.1124], [-1.0636, -0.6843, -0.96506], [0.11919, 0.89607, 0.79426], [1.3129, 0.77797, 1.1224], [-0.53717, -1.2501, -1.2439], [0.72762, 1.55, 1.5847], [-0.58407, -0.18207, -0.3746], [0.60908, 1.444, 1.4568], [-0.586, -1.1906, -1.2233], [1.182, 0.92503, 1.2099], [-0.82664, -1.4105, -1.4743], [0.29238, 1.1063, 1.1022], [-0.69982, -1.1149, -1.2237], [-0.082265, 0.48815, 0.37484], [-1.0007, -1.6678, -1.7959], [-0.82862, 0.1349, -0.17025], [-0.99366, -0.64104, -0.94631], [-0.93607, -1.0117, -1.1874], [0.37292, 0.89062, 0.86494], [-0.97059, -1.2023, -1.3329], [0.06063, 0.83181, 0.72957], [-0.64103, 0.064259, -0.20202], [0.40202, 1.1515, 1.1084], [-0.78129, -1.1163, -1.2048], [-0.86898, -1.1411, -1.2735], [-0.91312, -1.6354, -1.7349], [0.76172, 0.61984, 0.80368], [-0.84355, -1.2139, -1.2817], [-0.30349, -0.91212, -0.89576], [-1.2597, -1.4399, -1.6246], [-0.97211, -1.2278, -1.3817], [-0.57969, 0.3291, 0.087149], [-0.71294, -0.3669, -0.57393], [-1.108, -0.66258, -0.91976], [-0.71609, -1.2277, -1.3236], [0.30763, 1.0759, 0.97281], [0.24178, 1.195, 1.095], [-0.46211, -1.5305, -1.5059], [-0.74398, -1.293, -1.39], [-1.1732, -0.85821, -1.1701], [0.9793, 0.30589, 0.61657], [0.6, 1.112, 1.1521], [0.56663, 0.11425, 0.31595], [-1.0083, -0.30492, -0.63656], [-0.76459, -1.408, -1.4346], [0.48364, -0.16449, 0.061071], [1.0477, 0.64472, 0.92803], [-0.116, 0.711, 0.54251], [0.18798, 0.94083, 0.8647], [-0.80342, -0.50513, -0.68661], [-0.9356, -1.117, -1.2426], [0.76173, 0.94962, 1.0643], [-0.84172, -1.34, -1.4361], [-0.6929, -1.1768, -1.2464], [0.9845, 1.5387, 1.6244], [-0.43308, 0.12108, -0.090917], [0.48544, -0.20838, -0.036258], [-1.2608, -0.99273, -1.2911], [1.3092, 1.552, 1.7709], [-0.85452, -1.1497, -1.3056], [-0.76063, -1.2854, -1.3401], [0.81924, 0.45453, 0.7171], [0.34869, 1.0826, 1.0382], [0.2404, 1.0354, 0.96604], [-0.5279, 0.59447, 0.34902], [0.20323, 0.96618, 0.89114], [0.21484, 1.1695, 1.1064], [-0.367, 0.43803, 0.19726], [0.55403, 0.19593, 0.37309], [-0.32976, 0.34702, 0.16435], [-0.41732, -1.2462, -1.2219], [-0.8569, -0.99312, -1.1515], [0.28221, 1.1827, 1.0844], [-0.2197, 0.56123, 0.38041], [-1.2041, -1.1712, -1.4365], [-0.77186, -1.0609, -1.1771], [-0.63138, -1.0512, -1.1215], [-0.35436, 0.73719, 0.51261], [1.2787, 1.2706, 1.4947], [0.36949, 1.1141, 1.0677], [0.43954, 1.3323, 1.2867], [-0.40348, 0.15508, -0.0091497], [0.78867, 1.0872, 1.228], [0.42347, 1.2943, 1.291], [-0.89526, -1.1709, -1.3175], [0.52152, 0.87405, 0.92615], [0.71966, 1.0221, 1.1151], [-0.20964, -1.1791, -1.0966], [0.43662, 0.98116, 0.99578], [0.051847, 1.1435, 1.0114], [0.60144, 1.193, 1.2552], [-0.38991, 0.13717, -0.042119], [-0.49762, -1.1762, -1.1895], [-0.72575, -0.39638, -0.57115], [-0.90129, -0.98786, -1.1517], [0.46648, 1.403, 1.3134], [-0.96645, -0.078921, -0.41779], [-0.89622, -1.2225, -1.3262], [-0.71424, -0.20286, -0.45736], [-0.85992, -1.2497, -1.3837], [0.53989, 1.0688, 1.0939], [0.59659, 0.24641, 0.45194], [-0.93343, -1.0183, -1.2099], [0.7395, 1.081, 1.1951], [0.60499, 0.92466, 0.97676], [-0.9385, -1.0943, -1.2598], [-0.072026, -0.69106, -0.63724], [0.378, 1.0221, 1.0282], [0.25428, 0.99248, 0.92653], [0.43402, -0.059963, 0.14626], [-0.57865, -0.90343, -0.95425], [-0.73495, -1.1847, -1.2741], [-0.2794, -1.2314, -1.1547], [-0.084193, -1.1258, -0.96153], [0.82009, 0.64981, 0.86334], [-0.5657, -1.3659, -1.3307], [0.38662, 1.2202, 1.1842], [0.79481, 0.74735, 0.91332], [-0.36737, 0.37222, 0.14806], [0.59184, 0.52515, 0.65348], [0.1546, 1.0616, 0.95363], [-0.48916, -0.12676, -0.2343], [-0.49622, -1.3174, -1.3303], [-0.8908, -1.319, -1.4873], [-0.74517, -1.3445, -1.3997], [-0.82888, -1.2528, -1.3397], [-0.12106, 0.55446, 0.40761], [0.12839, 0.92995, 0.85874], [-0.50669, -1.0994, -1.1409], [-0.86871, -0.50999, -0.75822], [-0.61796, -1.6037, -1.6017], [1.1941, 0.99131, 1.2477], [-0.81454, -1.3087, -1.4086], [-0.033408, 0.77745, 0.64943], [-0.21882, -0.66575, -0.60686], [-0.14929, 0.79342, 0.58318], [0.10312, -0.97959, -0.83536], [0.86308, 0.80257, 0.99735], [-0.2625, 0.40867, 0.26006], [-0.44853, -0.90657, -0.95423], [-0.71624, 0.10029, -0.20377], [-0.73676, -1.2142, -1.2513], [-0.10954, -0.68024, -0.61769], [1.0549, 1.526, 1.6687], [-0.40142, 0.34743, 0.099136], [0.17584, 1.0219, 0.94763], [-0.47812, -1.235, -1.2357], [0.26744, -0.39974, -0.23684], [-0.41515, 0.57873, 0.32628], [-1.1158, -0.82342, -1.1235], [0.69007, 0.93909, 1.0261], [-0.51957, -0.1485, -0.27612], [-0.70782, -1.106, -1.1855], [-1.0379, -0.32082, -0.65375], [1.1587, 0.78081, 1.0871], [0.34748, 1.2209, 1.1713], [-0.34146, -1.3664, -1.2464], [-0.21043, 0.62286, 0.44275], [0.95163, 1.5263, 1.614], [0.99526, 0.95611, 1.1918], [0.59691, 1.0232, 1.0553], [0.26718, -0.39886, -0.20884], [-0.80324, -1.1878, -1.2794], [-0.34617, -1.2513, -1.195], [0.2893, 0.80211, 0.7678], [0.053392, 0.85265, 0.77256], [-0.78306, -1.3717, -1.4312], [-0.26667, -1.2124, -1.1364], [-0.59295, -1.2023, -1.2332], [0.3875, 1.0215, 0.94067], [0.13594, -0.49199, -0.34407], [0.23596, 1.1244, 1.0223], [-0.64291, -1.2787, -1.3377], [0.55332, -0.5927, -0.3281], [0.067366, -1.0827, -0.93756], [0.32416, -0.37872, -0.19256], [-0.97951, -1.2175, -1.3896], [-1.1218, -0.59207, -0.88029], [-0.86074, -1.0341, -1.179], [0.22864, 0.95452, 0.92021], [0.15683, 0.7584, 0.67115], [-0.89343, -1.1458, -1.2996], [-0.86359, -1.5558, -1.6143], [-0.10225, 0.73945, 0.5722], [-1.1758, -0.76172, -1.071], [1.1337, 0.67515, 0.95741], [0.42389, 1.1227, 1.0803], [-0.9277, 0.0071795, -0.2977], [0.18743, 0.91519, 0.84305], [1.1838, 1.651, 1.7981], [0.26789, 0.96552, 0.87207], [-0.038394, 0.69096, 0.5463], [-0.94626, -1.0427, -1.1941], [-0.22946, 0.83337, 0.63532], [0.12644, 0.92375, 0.80307], [-0.75196, -0.64997, -0.80463], [-1.2276, -1.4847, -1.6724], [0.26418, 1.0126, 0.99047], [-0.021903, 0.94076, 0.78878], [0.28312, 0.82993, 0.74973], [-0.62243, -1.1328, -1.1701], [-0.025075, 0.82157, 0.6587], [0.55161, 0.067197, 0.25567], [0.205, 0.87522, 0.83842], [0.29419, 0.86901, 0.85004], [-0.13845, 0.68402, 0.51471], [-0.71087, -1.0737, -1.1848], [-0.95531, -1.0532, -1.2099], [-0.77164, -1.0066, -1.1267], [0.62965, 1.1434, 1.2041], [0.23939, 0.69805, 0.68946], [-0.62481, -1.2723, -1.2695], [0.60249, 1.7247, 1.8068], [0.35131, 1.4962, 1.2799], [0.21357, 1.1455, 0.96225], [-0.1181, 0.70657, 0.43098], [-0.18841, 0.17628, 0.17124], [-0.11666, 0.74712, 0.46647], [0.093208, 0.86138, 0.6374], [-0.43913, 0.057105, -0.24573], [0.72168, 1.9736, 1.8961], [-0.16103, 0.41354, 0.15586], [-0.2682, 0.87591, 0.52516], [0.17202, 0.88168, 0.63706], [0.081387, 0.75344, 0.72926], [0.29009, 1.0397, 1.0863], [0.2334, 1.2491, 1.0452], [0.32024, 1.3872, 1.3988], [-0.26428, 0.97931, 0.63721], [0.29016, 0.90357, 0.94447], [0.16079, 1.1874, 0.95384], [0.30811, 1.1554, 1.1986], [-0.23717, -0.37708, -0.38803], [0.12438, 1.0014, 1.0004], [0.025809, 0.67391, 0.68522], [0.41117, 1.0042, 1.1148], [0.19962, 1.1084, 0.88671], [-0.060528, 0.60036, 0.33853], [-0.16684, 1.1753, 0.86618], [0.24127, 1.0984, 1.1585], [0.227, 0.67535, 0.74333], [-0.039363, 1.0015, 0.7471], [0.33062, 1.4649, 1.2449], [0.18269, 0.94124, 0.75659], [0.1135, 0.89709, 0.93172], [0.30214, 0.59236, 0.59368], [-0.12681, -0.45115, -0.49936], [0.41233, 1.1457, 1.191], [0.32373, 0.27018, 0.25007], [0.29997, 1.2587, 1.3229], [0.2528, 0.82868, 0.88601], [0.36737, 0.7655, 0.85587], [0.28958, 1.27, 1.0697], [0.65106, 2.1186, 2.1798], [0.30276, 0.20982, 0.23413], [0.064365, -0.29667, -0.29467], [-0.089436, 0.31308, 0.34173], [0.16404, 1.182, 1.195], [0.30092, 1.0235, 0.82419], [0.23133, 0.69943, 0.75169], [0.28956, 1.2149, 1.2786], [0.40517, 0.56224, 0.73548], [0.22911, 1.1858, 1.2013], [0.20152, 0.93301, 0.96108], [-0.018906, 0.49029, 0.27451], [0.68784, 2.6029, 2.4797], [0.29574, 0.5793, 0.65038], [0.18833, 1.1189, 0.89174], [0.30779, 1.1258, 1.1696], [0.1273, 1.0362, 1.0408], [0.37426, 1.0359, 0.87044], [-0.2886, -0.16277, -0.30027], [-0.28992, 0.19038, -0.067028], [-0.062453, 0.45848, 0.46133], [-0.014262, 0.6453, 0.6427], [0.33895, 1.3325, 1.1474], [0.50716, 1.3771, 1.4586], [0.082374, 1.1995, 0.93321], [0.53326, 1.5205, 1.6355], [0.027722, 0.7968, 0.5532], [0.11985, 2.1294, 1.9231], [-0.19781, -0.15871, -0.14628], [0.15207, 2.0492, 1.8261], [-0.37821, -0.19549, -0.41311], [0.15883, 1.0489, 0.82976], [0.32334, 1.1007, 0.94566], [0.17236, 1.0886, 1.1078], [0.14585, 0.92016, 0.73481], [0.37546, 1.1346, 1.1941], [0.2991, 1.3413, 1.3575], [0.0059763, 1.2219, 0.94304], [0.011157, 1.1982, 1.1367], [-0.046106, 0.52689, 0.27035], [0.36108, 1.2633, 1.0719], [-0.19806, 0.18236, 0.14107], [-0.46199, 0.5428, 0.16885], [0.19432, 1.0333, 1.0591], [-0.047872, 0.59929, 0.38924], [0.16201, 0.80889, 0.82205], [-0.21563, 0.36991, 0.13509], [0.1414, 1.2327, 1.0158], [0.4829, 1.3867, 1.4659], [0.36757, 0.8779, 0.98992], [0.084355, 1.2427, 1.0051], [-0.21687, 0.13369, 0.12209], [0.64026, 1.609, 1.4675], [0.039306, 0.98994, 0.99536], [-0.012497, 0.73022, 0.48093], [0.30505, 0.95876, 1.0446], [0.66724, 2.2795, 2.1681], [0.2473, 1.0702, 0.8681], [0.78338, 2.6322, 2.596], [0.11665, 0.9036, 0.72609], [0.54851, 0.83139, 0.97453], [0.26695, 1.186, 0.97362], [-0.27006, 0.039688, 0.037104], [0.24534, 2.1686, 2.0061], [-0.01284, 1.1786, 0.90034], [0.47739, 2.2919, 2.107], [-0.25463, -0.56488, -0.63444], [0.20347, 0.96555, 0.77709], [-0.060033, 0.4126, 0.42531], [-0.18484, 0.68643, 0.38329], [0.3423, 0.81169, 0.8867], [0.1239, 0.9709, 0.75303], [0.21165, 0.77231, 0.56585], [0.24387, 0.12309, 0.27081], [-0.07512, 0.8136, 0.53551], [0.30012, 0.83628, 0.90254], [0.076926, 1.1525, 0.8922], [0.8098, 2.3377, 2.326], [0.31598, 2.1917, 2.0142], [-0.063343, 0.87559, 0.61168], [-0.25962, -0.46431, -0.5216], [0.63785, 2.1266, 1.981], [0.072393, 0.73552, 0.54079], [0.17355, 0.98837, 0.97879], [0.26892, 0.049057, 0.036451], [0.2995, 0.66008, 0.75411], [0.55782, 2.435, 2.3153], [0.044646, 0.76648, 0.78011], [0.3734, 0.99944, 1.0837], [0.0045004, 0.67321, 0.72282], [0.11636, -0.0798, -0.078896], [0.42921, 2.3452, 2.2577], [0.60699, 0.88821, 1.059], [0.62691, 1.0773, 1.2585], [-0.0090475, 0.91671, 0.65767], [0.2442, 0.69698, 0.58893], [-0.37857, -0.48565, -0.71507], [-0.18628, 0.56705, 0.26799], [-0.32782, 0.18292, -0.13342], [-0.062908, 0.82104, 0.54696]], "support_vector_labels": [[1.0], [1.0], [1.0], [1.0], [1.0], [1.0], [1.0], [1.0], [1.0], [1.0], [1.0], [1.0], [1.0], [1.0], [1.0], [1.0], [1.0], [1.0], [1.0], [1.0], [1.0], [1.0], [1.0], [1.0], [1.0], [1.0], [1.0], [1.0], [1.0], [1.0], [1.0], [1.0], [1.0], [1.0], [1.0], [1.0], [1.0], [1.0], [1.0], [1.0], [1.0], [1.0], [1.0], [1.0], [1.0], [1.0], [1.0], [1.0], [1.0], [1.0], [1.0], [1.0], [1.0], [1.0], [1.0], [1.0], [1.0], [1.0], [1.0], [1.0], [1.0], [1.0], [1.0], [1.0], [1.0], [1.0], [1.0], [1.0], [1.0], [1.0], [1.0], [1.0], [1.0], [1.0], [1.0], [1.0], [1.0], [1.0], [1.0], [1.0], [1.0], [1.0], [1.0], [1.0], [1.0], [1.0], [1.0], [1.0], [1.0], [1.0], [1.0], [1.0], [1.0], [1.0], [1.0], [1.0], [1.0], [1.0], [1.0], [1.0], [1.0], [1.0], [1.0], [1.0], [1.0], [1.0], [1.0], [1.0], [1.0], [1.0], [1.0], [1.0], [1.0], [1.0], [1.0], [1.0], [1.0], [1.0], [1.0], [1.0], [1.0], [1.0], [1.0], [1.0], [1.0], [1.0], [1.0], [1.0], [1.0], [1.0], [1.0], [1.0], [1.0], [1.0], [1.0], [1.0], [1.0], [1.0], [1.0], [1.0], [1.0], [1.0], [1.0], [1.0], [1.0], [1.0], [1.0], [1.0], [1.0], [1.0], [1.0], [1.0], [1.0], [1.0], [1.0], [1.0], [1.0], [1.0], [1.0], [1.0], [1.0], [1.0], [1.0], [1.0], [1.0], [1.0], [1.0], [1.0], [1.0], [1.0], [1.0], [1.0], [1.0], [1.0], [1.0], [1.0], [1.0], [1.0], [1.0], [1.0], [1.0], [1.0], [1.0], [1.0], [1.0], [1.0], [1.0], [1.0], [1.0], [1.0], [1.0], [1.0], [1.0], [1.0], [1.0], [1.0], [1.0], [1.0], [1.0], [1.0], [1.0], [1.0], [1.0], [1.0], [1.0], [1.0], [1.0], [1.0], [1.0], [1.0], [1.0], [1.0], [1.0], [1.0], [1.0], [1.0], [1.0], [1.0], [1.0], [1.0], [1.0], [1.0], [1.0], [1.0], [1.0], [1.0], [1.0], [1.0], [1.0], [1.0], [1.0], [1.0], [1.0], [1.0], [1.0], [1.0], [1.0], [1.0], [1.0], [1.0], [1.0], [1.0], [1.0], [1.0], [1.0], [1.0], [1.0], [1.0], [1.0], [1.0], [1.0], [1.0], [1.0], [-1.0], [-1.0], [-1.0], [-1.0], [-1.0], [-1.0], [-1.0], [-1.0], [-1.0], [-1.0], [-1.0], [-1.0], [-1.0], [-1.0], [-1.0], [-1.0], [-1.0], [-1.0], [-1.0], [-1.0], [-1.0], [-1.0], [-1.0], [-1.0], [-1.0], [-1.0], [-1.0], [-1.0], [-1.0], [-1.0], [-1.0], [-1.0], [-1.0], [-1.0], [-1.0], [-1.0], [-1.0], [-1.0], [-1.0], [-1.0], [-1.0], [-1.0], [-1.0], [-1.0], [-1.0], [-1.0], [-1.0], [-1.0], [-1.0], [-1.0], [-1.0], [-1.0], [-1.0], [-1.0], [-1.0], [-1.0], [-1.0], [-1.0], [-1.0], [-1.0], [-1.0], [-1.0], [-1.0], [-1.0], [-1.0], [-1.0], [-1.0], [-1.0], [-1.0], [-1.0], [-1.0], [-1.0], [-1.0], [-1.0], [-1.0], [-1.0], [-1.0], [-1.0], [-1.0], [-1.0], [-1.0], [-1.0], [-1.0], [-1.0], [-1.0], [-1.0], [-1.0], [-1.0], [-1.0], [-1.0], [-1.0], [-1.0], [-1.0], [-1.0], [-1.0], [-1.0], [-1.0], [-1.0], [-1.0], [-1.0], [-1.0], [-1.0], [-1.0], [-1.0], [-1.0], [-1.0], [-1.0], [-1.0], [-1.0], [-1.0], [-1.0], [-1.0], [-1.0], [-1.0], [-1.0], [-1.0], [-1.0], [-1.0], [-1.0], [-1.0], [-1.0], [-1.0], [-1.0], [-1.0], [-1.0], [-1.0], [-1.0], [-1.0], [-1.0], [-1.0], [-1.0], [-1.0], [-1.0], [-1.0], [-1.0], [-1.0], [-1.0], [-1.0], [-1.0], [-1.0], [-1.0]], "kernel": "gaussian"}