{"weights": [0.09605034015221849, 3.054956462074387, 0.13839052128233262, 3.3274700252958906, 0.2121724773016121, 2.9468119954457666, 0.24467286654280934, 0.10514003603665113, 2.4255873845499227, 0.23048372758467361, 1.1026895174447047, 1.0538300939173286, 1.3638678121496848, 0.6707530432462054, 0.013133929516372014, 0.5405932344692508, 1.9651369367513138, 0.13551659647992828, 0.30513988649679585, 0.0010162091311652984, 0.6248365487930025, 1.0871291839833574, 1.0194799815979165, 0.13977960324622918, 0.24165161171711308, 1.2897902930842082, 0.16705031355655534, 1.6816683560580625, 0.13155824868178356, 0.24410626322276532, 0.7604362473894654, 6.227350218607942, 0.3812794490867234, 1.9094235326807731, 0.723683582624384, 0.7950781669117964, 2.1360970908343244, 2.4011651839813375, 8.376993317630728, 0.026685965360788603, 0.9405561326772034, 5.725664690894206, 0.49746904444421486, 0.5476460632985113, 5.391237364701235, 0.7863071800724684, 2.6939793918350783, 0.01340810929558838, 0.0003833982550456639, 2.653619129554273, 1.1483567012255358, 0.07319454466531673, 0.7658614852051021, 1.6768837980739795, 2.5720711703568275, 0.9476256569386013, 6.009430802778581, 0.4597929471278675, 0.6698083829347371, 1.7821613455352103, 0.13922497594516403, 0.19750498102360114, 0.04034423637171383, 8.856431185522402, 1.1879836416435325, 0.008980956881114303, 0.10037955340898712, 4.23301096149791, 1.1762127795435302, 2.24932732217148, 0.0006300275916910564, 2.264159154995453, 7.259507369641567, 1.4656775574491296, 0.0928144559612555, 1.6574063976649163, 15.578607055938196, 0.7359287477760288, 0.48717073330288935, 1.2216019167995686, 2.771563938497426, 0.7603390143234987, 0.20165636424012343, 4.6381170201531505, 2.0516610097319106, 0.5724499844928598, 0.2535325874610818, 0.10339417820880008, 0.05246695676370007, 1.875282013038715, 0.2541732178307809, 1.043102023253801, 0.6742733146991216, 0.00882809680455145, 1.0093448558904958, 1.7264948293648366, 0.10369757476957252, 0.6827904836386012, 0.19606989267674854, 8.953528939425256, 0.2935594836011393, 3.569981611127275, 3.0076791659787356, 1.1287285684494395, 0.40629950261319137, 7.006544021584453, 7.7496456146098796, 0.767098637264204, 1.1505243724039604, 0.7446330639413705, 0.47175487883296624, 5.028370663758934, 0.13402929643741665, 2.8403634333286756, 4.702141197718656, 1.378400248573474, 0.1383573213751867, 1.272804752172447, 2.3610238614144117, 0.24937672722908386, 0.16101152166280167, 0.9287348697887094, 0.5345139372785338, 1.4259438496324126, 0.24483007316473987, 4.269773623349483, 0.26541039946074396, 1.4673783453849327, 0.0008506356620628227, 0.2761416365089348, 0.008139634896913838, 1.9449121055909304, 2.970702367582827, 0.7730528336596699, 0.7786940176937333, 2.354491072237168, 1.4112930545624667, 0.14545372069562776, 10.639400560216378, 0.08586688480590242, 1.6883534959132445, 0.02331456028844385, 1.6006289495803963, 5.883514034634901, 1.7657820553362138, 1.057863000495047, 0.3616278509710642, 0.2682441787367843, 0.5799179830148755, 0.691345970923228, 0.03218486991359738, 0.16425765521111121, 4.360145120372281, 0.7913490155373435, 3.0112769907849786, 0.04622740293490131, 3.397040087717541, 0.3670692962366979, 0.04172167070961498, 0.28694415208604024, 0.8883662886713368, 0.3072865848550479, 0.7926407125330741, 0.39697050155829533, 0.03620728093566904, 0.3600572447462277, 0.12618439194427716, 0.39583759732433743, 0.251567811320165, 0.5214619518108229, 2.694096816341897, 0.052081996079118745, 0.6661132372016715, 6.8797812628520685, 2.174292621035779, 0.00029409227127870493, 2.7336774437463327, 0.0850648470713064, 2.9289523568981246, 0.5858080646464378, 0.7264817838649842, 0.4653088043796871, 0.14000644755929872, 0.831528887146455, 4.882018951417186, 1.036221651193877, 0.10008836503338119, 0.467698029971834, 0.0380777793789124, 0.2045873609983197, 0.6897633924304135, 1.2751253136263951, 1.0962828317202988, 0.8827492648927493, 0.6089579078863325, 1.184240782026094, 5.95735265029902, 0.04638717819728393, 0.22597662350101258, 0.3090809963835552, 0.0009250040795856207, 0.7600834485777417, 0.003975871791537728, 0.6803625850608926, 2.0699890919512987, 0.092225016877065, 3.7572307141479175, 0.6904635889567902, 1.4776623732188863, 0.9919232460955014, 0.5676754617429485, 0.17387454961281404, 1.7473247810735324, 0.10274767041798528, 1.1671780112558987, 0.017258443336472987, 1.3638537269257058, 1.2536270293721916, 0.5376895710267148, 0.8197035995947333, 0.7561033306280923, 2.261765992412843, 3.0796673345423593, 0.016653239697162214, 2.473443217405623, 2.638716332772895e-05, 3.9205910326341122, 0.42375388667041475, 0.6151348398718082, 0.39875535712641086, 1.676277569825669, 1.8269196504487393, 0.3726861849759747, 0.2307042497383148, 1.584759972230937, 4.476542767984879, 7.179925292340773, 0.07959877285385654, 0.21323195955434657, 3.307912066896457, 0.5636551187813167, 0.020702601772754854, 5.936435960467679, 4.066032011543582, 0.24708282745965973, 0.536273226411939, 0.35303129021856156, 1.4574721436432105, 0.6977935875786848, 0.2784809825431061, 0.7022104828340942, 0.006970218725239356, 1.2086019159253776, 1.2162086911833818, 0.9122300258461529, 1.3489982320584808, 1.6117485352773355, 0.3343521045977554, 0.46534794909717364, 1.349704107338706, 0.6236468929402607, 0.4520191444661087, 2.445494928471614, 0.22045177180656383, 1.4907657235905598, 0.3724457633180515, 0.6141249609119236, 1.3770054356185963, 0.08249973266358071, 0.5897118869328296, 0.0466556070527008, 5.310324672872752, 2.1393516601170908, 0.3230843008388972, 2.4679227885146076, 0.1730477814323519, 0.0004144747164236107, 4.990494914735532, 0.40970638858228886, 3.070911934871118, 3.752931106255265, 1.4789461142649405, 1.578335180147973, 0.029320873736201316, 0.23729639452957976, 0.032802379291365515, 0.8980040690123995, 1.76348324659318, 2.348962341375181, 5.411652775395233, 0.6109446845836036, 4.291249797984141, 0.0035979997621688542, 3.729179957279526, 0.06016006211484778, 0.797755705081125, 0.9510842087743846, 0.09680425036923614, 3.9293006040529015, 0.47804617713114084, 1.5721471608773294, 0.12250119746174959, 1.3031797250910053, 0.5910021809041619, 2.297095927905088, 2.6467305418138194, 0.1647156972173232, 10.327486309327302, 2.5123584274193465, 1.0016909181932447, 9.87946044986397, 0.041125646303306666, 0.45768501020827435, 16.134166505570345, 0.11199390165883721, 0.19067799873623162, 0.6404127135603318, 1.5786972387776528, 0.6501191149527028, 0.5805225487397275, 3.18066107885739, 8.219097466786282, 0.34238517335548996, 0.8451299516954766, 0.00019612036018096615, 0.15327838782649525, 2.886181165685377, 2.3511266601428615, 1.135348099592402, 0.05233498041831338, 0.057856249645251635, 0.797015260387156, 2.099407520840633, 0.28534488471325015, 5.484265653880798, 1.5212916207705711, 7.675008450773511, 0.016084853637366513, 1.0350768366606107, 0.3838347077836384, 0.35418230960648517, 0.48095316681446487, 0.6173355310335832, 0.009195041934077034, 1.4078066366887134e-05, 3.711702311732728, 0.47482435957539665, 5.534715168753642, 2.2662194912114577, 0.08773853752930216, 0.41791334161037536, 0.27814700958055955, 2.9171874362951296, 0.8506190486257689, 0.04140797148358462, 0.8006398660962708, 0.14313150602694655, 3.649577926891892, 4.007060437275313, 0.0035110726272946776, 0.8253240159190612, 1.1406721740430388, 0.1807388474579122, 0.3972774143640972, 0.030160199614645455, 0.06925803198140607, 0.43937511784904854, 0.4322085898872038, 1.4356953054630432, 0.3126953312814595, 1.1910218710340457, 9.66421160850255, 0.27763463981029174, 0.05221401931448344, 3.0987466962456063, 1.8549989895972616, 0.10366110283692798, 0.04793543760101457, 7.0418463226216e-05, 0.052159050583966436, 0.005755792903579462, 0.3383607650145414, 2.7851892717915763, 0.0024323152778199728, 0.9136731740973592, 2.680477115773246, 0.05069335520522644, 1.8832303540338673, 5.465285015424596, 0.171347831122292, 0.11180320937215943, 0.07712053449877405, 2.305957484633843, 2.05253571433501, 2.7106659478762754, 0.8537827217173429, 0.7892323812816939, 1.3216482827149576, 0.01453655062324156, 0.13765173703572575, 1.1260656474165742e-05, 0.1893207370712771, 0.5588369536085197, 0.0016296933618819083, 6.775224938732569, 0.8955092401790308, 0.6794626205763025, 1.2253145335841185, 0.2981089952074814, 1.2747567235146655, 0.6279165431259184, 0.11810644190650783, 0.5274515355589815, 0.4957432235117133, 0.22394452981141585, 0.5432089505681621, 0.6160116886301117, 0.006128440097232024, 5.719385388510885, 0.155656853596796, 2.350611793731377, 1.375066587121287, 0.21708742171754108, 0.06646995764893619, 0.619879977310807, 0.8293388290543088, 0.09702997439416375, 0.10662735118280024, 2.5113047448110604, 0.7969277389585123, 0.3878721344002132, 2.323088728127694, 0.17903150647098934, 0.26759709305761853, 2.4404046322665907, 0.2619504343877906, 2.53180307454625, 0.06778427084087531, 0.12468327900236287, 1.2995493796232542, 0.12520308263280716, 0.048880856019771504, 0.07473116536798492, 0.8919890123744151, 0.11367277315343859, 1.3711944291919274, 1.1799870129856402, 0.9095193416519328, 0.0038570271771985846, 0.3029168464205109, 2.476137338205573e-05, 0.06819444884162355, 3.7363648598591475, 2.608967549516255, 0.22941027601742933, 1.5342180191640242, 1.4883987354768045, 10.12357265734688, 4.950558517777663, 8.01164166068481, 1.4819991522518614, 0.9026327678922603, 1.4043089031568563e-05, 0.09877290856618168, 1.0787474209785524, 1.0315247985207054, 0.17229729192707818, 0.3405712208610512, 0.02909690060621317, 2.9558720173298294, 5.499258802393653, 1.5668869413354167, 1.1347077347888133, 10.140396196705867, 0.18954846340812168, 4.200323406421067, 1.1162014146626957e-05, 0.16248783502043843, 4.750662402981885, 0.3160862671239543, 0.6396470818543207, 0.7677516637884837, 2.7013385499320783, 0.4396632802672189, 0.1114181096441374, 0.20254398147462752, 0.22562627119526246, 1.056288763112145, 0.1147229757684318, 0.17249351275894426, 0.03387827879123281, 2.700455535695667e-05, 0.13222452683559616, 0.44914710411475106, 1.3383791835585392, 10.021314496136942, 1.1473201241076556, 0.4749531397386271, 0.21672655282247322, 3.392493755819477e-05, 2.1844327627498803, 0.03453418584821859, 0.13993860687541249, 0.5170329793446625, 0.4973632837757876, 3.1125677645977516, 5.186822544240866, 0.7026422330137714, 0.7015488670147788, 2.5435321735837912, 19.72763666970995, 0.12135936310710503, 2.1102165137584588, 3.0574199939914917, 1.5553928888442954, 3.213835381563897, 0.28352770986574044, 1.5574327435476272e-05, 0.25628111709303947, 0.06559629338481063, 1.5623977573360435, 0.4728830652152515, 6.131937815631834, 0.06029588732333414, 0.5491661437067369, 3.377267182211872e-05, 2.9358833602541115, 0.9108937285767286, 0.3258199618284001, 0.01676806168769995, 4.536686682604057, 0.12035817171329942, 0.3707297252956827, 0.13950024164344635, 5.7571393393097505, 8.025488733464998, 0.06284690144539685, 1.903094724018285, 4.001942545492316, 0.08408063489285893, 1.711133749401678, 2.9325363418638, 0.7952373794534273, 0.7130592685039661, 0.09079353163153445, 0.47396657051709506, 7.642289588382289e-05, 1.8668305104816247, 0.26949837745602884, 1.36481613223698, 2.453430475424583, 2.037088730809396, 0.5731231680671053, 0.3497067790189174, 0.584605111075724, 4.023391151393159, 0.810715702521588, 0.4978590443288198, 2.8993481676254924, 0.051721227203340873, 0.6889039337324854, 0.005421351452209711, 6.668611409995909, 1.661749449079371, 0.08292026113779191, 0.13277608709813077, 2.2375987827607298, 0.129518083014344, 0.7969086426836137, 2.3053057414446676, 4.4160681480744834, 1.1301562359728503, 0.08462323630824255, 0.08083559065161158, 1.7789942687911364, 4.5862420040780485, 0.00923098873658889, 1.2394338504736349, 0.06345507428679067, 0.049154730302645715, 0.0729813020086711, 1.29324696080035, 0.35835347102949083, 4.688429000998108, 0.048584897537769164, 0.5966490791572361, 1.174766711240282, 0.1924627362662181, 0.04137970911689446, 0.8134203099505521, 0.09374499716643878, 0.21097801725279158, 3.956038843058786, 0.9251119451119585, 0.06793354829144672, 4.545759656164017, 0.18834481984015217, 0.38876865569052144, 0.0873963331939158, 1.8570500031364556, 0.5463871372279839, 1.3755304449485584, 7.634043043424149, 1.730478774576246, 4.038699144268293, 0.4989046048108591, 1.14488340893582, 1.3262789940033528, 0.6258943605453291, 11.911907551884097, 0.06095758853715492, 0.025218199341506597, 0.07716096124172424], "bias": 0.0, "sigma": 0.3, "support_vectors": [[-0.75073, -0.59417, -0.13248, -0.15408], [1.0901, 1.3011, 0.77734, 0.52545], [1.1942, 1.6017, 1.1724, 0.5345], [-0.55231, -0.46673, -0.23262, 0.16618], [-0.62371, -0.89889, -0.75366, -0.73886], [0.95636, 1.0386, 0.58655, 0.43138], [0.39265, 0.022208, -0.15636, -0.12151], [0.72428, 0.59034, 0.3662, 0.32917], [-0.2224, -0.24066, 0.12866, 0.059182], [-0.49413, -0.63328, -0.44047, -0.040396], [-0.0085264, -0.14051, 0.00038017, 0.17327], [-0.020595, 0.31841, 0.57422, 0.32418], [0.40634, 0.78049, 1.0259, 0.49726], [-0.43178, -0.1681, 0.10252, -0.14199], [-0.41583, -0.54632, -0.39312, 0.08583], [0.5123, 0.98487, 0.94901, 0.67726], [-0.14058, 0.21656, 0.53811, 0.22215], [-0.062014, -0.13985, -0.33422, -0.31683], [0.63438, 0.44532, -0.021992, 0.25696], [0.29052, 0.15764, 0.058578, 0.37218], [-0.31713, 0.14273, 0.27199, 0.048193], [0.43153, 0.57196, 0.17017, 0.11961], [0.51088, 0.65721, 0.43732, -0.011824], [0.46621, 0.52334, 0.013776, 0.089658], [-0.31095, 0.044592, 0.32227, -0.19946], [0.75559, 1.0013, 0.54175, 0.2928], [-0.21511, -0.07204, -0.053593, -0.31957], [1.0517, 1.5906, 1.239, 0.84852], [0.1536, 0.50401, 0.71949, 0.2344], [-0.4731, -0.22596, 0.018862, -0.14772], [0.076548, 0.45881, 0.73272, 0.27726], [-0.39104, -0.14741, 0.071414, 0.032073], [0.49202, 0.70832, 0.72411, 0.53228], [0.93981, 1.0307, 0.72106, 0.41748], [0.89158, 1.2734, 0.83912, 0.51493], [0.50698, -0.018364, -0.12691, -0.15947], [1.0639, 1.7453, 1.4193, 0.94816], [0.85163, 0.9322, 0.70785, 0.50412], [1.0994, 1.1898, 0.68432, 0.42368], [-0.60498, -0.39562, -0.21339, -0.17433], [0.10106, 0.037402, -0.12017, -0.34719], [1.3358, 1.7786, 1.3148, 0.79985], [0.903, 1.0435, 1.0115, 0.51348], [1.1181, 1.3, 0.89429, 0.48309], [-0.18665, 0.30342, 0.53066, 0.37842], [-0.11905, -0.53774, -0.29349, -0.099337], [0.70306, 0.738, 0.34265, 0.43207], [0.3347, 0.18562, -0.14436, -0.031989], [-0.70397, -1.1656, -0.68176, -0.31044], [0.77559, 1.2252, 0.99714, 0.8824], [1.0096, 1.2223, 0.83484, 0.46648], [-0.32038, -0.097749, -0.040162, -0.18404], [0.16486, -0.25155, -0.055327, -0.025477], [0.077844, 0.42851, 0.65969, 0.46028], [0.57291, 0.692, 0.53382, 0.43836], [0.2732, 0.25748, 0.25563, 0.4231], [0.82764, 0.63952, 0.46542, 0.24124], [0.27021, -0.052916, 0.046993, 0.095002], [0.54166, 0.64337, 0.57631, 0.56694], [-0.61781, -0.58254, -0.2471, -0.080914], [-0.01085, 0.37183, 0.32777, -0.1121], [-0.18737, -1.001, -0.98174, -0.56285], [-1.1338, -1.6383, -1.1729, -0.86528], [-0.25808, -0.034158, 0.3111, 0.18196], [0.26236, 0.29087, -0.045823, -0.042383], [0.56622, 0.40453, -0.013302, 0.030525], [-0.93427, -1.1758, -0.60247, -0.4786], [-0.15608, 0.15874, 0.45659, 0.38475], [0.70063, 0.52964, 0.1964, 0.13622], [0.0019196, 0.038988, 0.28907, 0.23001], [-0.58054, -0.71156, -0.37982, -0.14247], [1.2441, 1.6552, 1.286, 0.67277], [0.74977, 0.77631, 0.5159, 0.35117], [0.35364, 0.40154, 0.070095, -0.047284], [-0.64465, -0.66347, -0.24123, -0.050934], [0.1437, 0.84683, 0.88089, 0.54573], [-0.11432, 0.25482, 0.58744, 0.3714], [0.63672, 1.1101, 1.2343, 0.48182], [1.0482, 1.3816, 1.1885, 0.53922], [0.11639, -0.1093, -0.029876, 0.085955], [-0.52319, -0.39396, 0.10905, -0.098019], [0.48915, 0.58879, 0.54028, 0.37244], [-0.053164, -0.24474, -0.4186, -0.34371], [0.57631, 0.75587, 0.37372, 0.2279], [-0.080348, 0.37821, 0.58652, 0.39055], [-0.6583, -0.60651, -0.11702, -0.071005], [-0.82515, -0.63232, -0.22266, -0.3404], [0.67776, 0.91331, 1.0106, 0.54629], [-1.0702, -1.574, -1.0369, -0.7889], [-0.08166, 0.27665, 0.5575, 0.16473], [-0.45414, -1.2985, -1.2545, -0.71237], [0.63448, 1.3184, 1.3907, 0.7102], [-0.44101, -0.52265, -0.49199, -0.46052], [-0.9232, -1.1058, -0.72762, -0.24023], [-0.33693, -0.21748, -0.11755, -0.33832], [-0.18056, -0.099575, 0.2007, 0.29449], [0.0033698, -0.63731, -0.59305, -0.32247], [-0.50523, -0.32386, -0.17252, -0.22076], [0.561, 0.94954, 0.72618, 0.35235], [-0.26811, 0.067784, 0.38448, 0.32431], [-1.112, -1.6562, -1.473, -0.78291], [-0.18774, 0.049238, 0.49827, 0.1299], [0.99957, 1.0964, 0.86512, 0.52642], [-0.07007, 0.49474, 0.75972, 0.30805], [-0.65496, -0.94357, -0.43247, -0.37501], [-0.15759, 0.2123, 0.54032, 0.24213], [-0.33298, -0.11162, 0.12719, 0.12609], [0.72077, 0.95296, 0.79573, 0.15642], [-0.31179, -0.55911, -0.057191, -0.037372], [-0.15128, -0.19732, -0.19852, 0.31209], [-0.20579, -0.31544, -0.21721, 0.20247], [-0.16854, 0.040192, 0.35205, 0.13749], [-1.1708, -1.5121, -1.0896, -0.84343], [0.93784, 1.0672, 0.60841, 0.30253], [0.86411, 1.0664, 0.65894, 0.52937], [-0.14628, 0.26453, 0.15641, 0.010103], [-0.56016, -1.1511, -1.2761, -0.44324], [1.0788, 1.5696, 1.1639, 0.76769], [-0.19951, -0.026983, 0.030116, -0.17274], [-0.14599, -0.20142, -0.36503, -0.37104], [0.62993, 0.81764, 0.48647, 0.10623], [0.77287, 0.77465, 0.56941, 0.42037], [0.81934, 1.1381, 0.94951, 0.73768], [0.16794, 0.62389, 0.83449, 0.39836], [-0.23568, -0.64008, -0.71143, -0.61678], [1.0301, 1.1985, 0.85703, 0.42214], [-0.55023, -0.74011, -0.43016, -0.19967], [-0.038446, 0.18998, 0.50536, 0.23127], [0.34154, 0.64792, 0.27639, 0.11275], [0.1583, 0.33524, 0.61147, 0.28165], [-0.23712, -0.9298, -1.0206, -0.32926], [-0.043768, 0.24071, 0.092518, -0.03252], [0.68697, 0.94451, 0.49124, 0.29252], [-0.050903, 0.501, 0.35572, 0.14893], [1.0797, 1.2775, 0.87506, 0.53746], [1.0061, 1.2129, 0.97479, 0.59633], [-0.32747, -0.15007, 0.17766, 0.15964], [0.25466, 0.40553, 0.030389, -0.024785], [0.9318, 0.8469, 0.65093, 0.27334], [-0.016955, -0.0046666, -0.23352, -0.2557], [0.77417, 0.70891, 0.58205, 0.3841], [-0.81703, -0.984, -0.65438, -0.61965], [0.48059, 0.60745, 0.3426, 0.083553], [-0.30832, -0.13477, 0.21806, 0.10578], [0.26218, 0.82312, 1.0547, 0.53162], [0.83578, 0.87933, 0.40108, 0.26874], [0.37867, -0.052404, -0.27822, -0.38969], [0.24064, 0.49905, 0.18677, 0.0070939], [-0.56681, -0.50199, -0.39087, -0.38984], [-0.33644, -0.52067, -0.31762, 0.021572], [-0.30386, -0.6739, -0.34656, -0.070703], [-0.21866, -0.85993, -1.1393, -0.46599], [-0.15092, 0.10102, 0.41598, 0.2351], [0.67424, 0.58075, 0.19706, 0.15443], [-0.34553, -0.042145, 0.31856, -0.0624], [0.45635, 0.31807, 0.24837, 0.35585], [-0.058552, -0.045661, 0.28972, 0.14974], [0.15406, 0.24168, 0.53749, 0.28814], [0.20797, -0.046966, -0.283, -0.051014], [0.32168, 0.15968, -0.10974, -0.21487], [0.99073, 1.0625, 0.86363, 0.57127], [0.98917, 1.3185, 1.1078, 0.66903], [0.40655, 0.47659, 0.19845, -0.050515], [0.9409, 1.1589, 0.84777, 0.40634], [-0.62053, -1.3513, -1.3343, -0.72933], [0.13825, 0.48874, 0.5702, 0.050914], [0.13657, 0.33507, 0.087518, -0.15553], [0.45395, 1.0405, 1.1854, 0.49627], [-0.88342, -1.5447, -1.461, -0.84635], [0.84613, 1.4182, 1.2627, 0.88629], [1.0399, 1.1997, 0.62377, 0.47457], [0.033457, -0.27854, -0.45928, -0.39246], [0.55765, 0.31733, 0.13908, 0.15923], [-0.26599, 0.042125, 0.36458, 0.14699], [0.70085, 0.89079, 0.64613, 0.23741], [-0.25201, -0.76295, -0.64285, -0.2612], [0.72237, 0.70733, 0.37827, 0.31242], [0.95588, 1.2397, 0.82769, 0.48465], [0.22476, 0.46626, 0.49787, 0.5719], [0.33938, 0.72922, 0.88665, 0.2236], [-0.56661, -0.41632, -0.067109, 0.0081761], [0.34888, 0.94628, 0.9948, 0.63633], [-0.86595, -0.6006, -0.19124, -0.123], [0.096933, -0.053597, -0.20327, -0.3908], [-0.21942, 0.1489, 0.44673, 0.27454], [-0.22871, -0.038949, -0.15937, -0.1572], [0.56728, 1.3256, 0.99729, 0.67563], [0.21053, 0.17698, 0.25316, 0.29881], [-0.53427, -0.41329, -0.36158, -0.3613], [0.50949, 0.50823, 0.18307, -0.024546], [0.14038, -0.02065, 0.017311, 0.19553], [0.33111, 0.48268, 0.079918, 0.062637], [-0.14268, -0.45417, -0.20015, -0.021981], [0.70905, 0.38877, 0.09434, 0.035309], [0.98952, 1.0724, 0.63664, 0.42196], [0.24368, 0.22686, 0.53679, 0.24349], [0.86638, 0.85958, 0.55628, 0.21249], [-0.70429, -1.3286, -1.1968, -0.8265], [0.997, 1.4986, 1.3566, 0.48233], [-1.1685, -1.1909, -0.68798, -0.41579], [0.07353, 0.62106, 0.80211, 0.22358], [0.13068, 0.50935, 0.30169, 0.049004], [0.31993, 0.82301, 0.56462, 0.22852], [-0.60135, -0.35064, -0.045164, 0.062263], [0.037161, -0.13434, 0.15, 0.072166], [0.5061, 0.30912, -0.1528, 0.15703], [0.49364, 0.26972, 0.10138, 0.13072], [0.58096, 0.78317, 0.76908, 0.37703], [-0.35875, -0.39434, 0.086424, 0.033194], [0.51373, 0.45048, 0.29399, 0.50743], [1.1143, 1.8458, 1.2669, 0.81621], [-0.66045, -1.5132, -1.3377, -0.62323], [0.48184, 1.2136, 1.3967, 0.62284], [0.25846, -0.27784, -0.29029, -0.14829], [0.036288, 0.42078, 0.66018, 0.43138], [-0.94283, -1.4388, -1.1331, -0.87053], [0.52009, 0.33886, 0.29788, 0.24674], [0.56454, 0.4452, 0.43222, 0.30864], [0.7005, 0.86499, 0.82045, 0.64665], [-0.17542, -0.35195, -0.47256, -0.35689], [0.307, 1.0954, 1.0766, 0.64267], [0.011376, 0.062423, 0.026783, 0.3893], [0.9787, 1.0652, 0.7471, 0.53764], [0.76504, 0.67083, 0.28261, 0.26281], [-0.56268, -0.43444, -0.032532, -0.2947], [-0.10173, 0.15412, 0.0029342, -0.12404], [0.88155, 0.8984, 0.61972, 0.23153], [0.12519, 0.58686, 0.7704, 0.4104], [1.0138, 1.4437, 1.0402, 0.67131], [-0.027828, 0.14544, 0.017971, -0.18582], [0.59493, 0.60406, 0.444, 0.39673], [-0.35887, -0.22555, 0.074837, 0.28547], [0.12839, -0.64782, -0.75634, -0.52066], [-0.26198, -0.18806, -0.30509, -0.29338], [-0.4102, -0.25697, -0.0035069, -0.35726], [-0.10855, 0.31044, 0.60283, 0.31718], [0.70921, 0.80129, 0.45373, 0.23708], [0.060438, 0.06611, 0.39753, 0.27395], [-0.16008, 0.52438, 0.51708, 0.28272], [-0.16767, 0.029682, 0.36014, 0.16615], [-0.58902, -0.46455, 0.001688, -0.15404], [0.060274, 0.091397, 0.31743, 0.35079], [1.035, 1.265, 0.99532, 0.52851], [-0.44945, -0.21476, 0.19439, 0.0032264], [0.067591, 0.27682, 0.074528, -0.14259], [-0.33562, -0.21161, -0.29657, -0.24024], [1.1602, 1.6712, 1.3656, 0.76013], [-0.32856, 0.11973, 0.29343, 0.061952], [-0.54321, -0.40882, -0.32407, -0.28759], [-0.014185, 0.19911, -0.045491, -0.096364], [0.11074, 0.27767, -0.083031, -0.034757], [-0.35508, -0.92083, -0.66513, -0.27769], [1.0351, 1.3786, 1.303, 0.69438], [0.37961, 0.25951, -0.025201, -0.15255], [0.84151, 1.0512, 0.73142, 0.37836], [-0.07306, 0.12199, 0.51688, 0.29449], [0.26251, 0.61306, 0.81769, 0.47116], [-0.88103, -0.78007, -0.20918, -0.24871], [-0.44046, -0.10167, -0.1496, -0.058329], [0.5186, 0.55633, 0.30199, -0.03547], [-0.41258, 0.0051243, 0.055928, 0.0055404], [-0.30559, -0.62077, -0.32051, -0.053725], [-0.45627, -0.62945, -0.09706, -0.12104], [-0.53899, -0.37066, -0.025287, 0.068589], [0.7892, 1.0427, 0.70949, 0.32655], [0.3707, 0.34661, 0.34966, 0.41038], [-0.45827, -0.73803, -0.318, -0.11193], [-0.56155, -0.40988, -0.29314, -0.20378], [-0.053931, 0.30732, 0.28433, -0.14136], [0.62706, 0.43559, 0.16974, 0.28786], [-1.1058, -1.4455, -1.0025, -0.49773], [0.80835, 0.83256, 0.52007, 0.4406], [0.6721, 0.52154, 0.38752, 0.31386], [0.58949, 0.84437, 0.84516, 0.607], [0.027444, 0.56584, 0.71335, 0.4607], [0.44141, 0.2767, 0.21442, 0.32033], [0.17767, 0.20666, 0.42861, 0.3395], [-0.24741, -0.33317, 0.11188, -0.026418], [-1.2478, -1.7483, -1.2543, -0.80107], [-0.45683, -0.43092, -0.092201, 0.03398], [-0.4407, 0.0022761, 0.2036, 0.16542], [0.15663, -0.20237, -0.1239, -0.036263], [-0.20319, 0.35765, 0.59755, 0.32166], [1.1356, 1.4844, 1.0824, 0.54192], [-0.60976, -0.48338, -0.34003, -0.30048], [0.80379, 0.94038, 0.7543, 0.52955], [0.10059, 0.14471, -0.1425, -0.097197], [0.043534, -0.4898, -0.28635, -0.20152], [1.1844, 1.5348, 1.016, 0.61885], [1.1755, 1.4095, 0.92576, 0.59836], [-0.18191, 0.12184, 0.4494, 0.21437], [-0.42247, -0.26559, -0.063945, -0.017685], [0.66753, 0.30263, -0.021299, 0.025583], [-0.24244, 0.21911, 0.41896, 0.22073], [-0.66256, -0.6208, -0.43272, -0.44352], [0.63039, 0.82843, 0.60853, 0.048665], [0.77862, 1.4083, 1.3003, 0.8785], [-1.1194, -1.503, -1.2918, -0.54157], [0.81833, 1.0871, 0.76315, 0.66834], [0.094838, -0.12987, -0.30614, -0.33538], [0.9966, 1.1077, 0.66307, 0.4253], [-1.1468, -1.3031, -0.92137, -0.67524], [-0.48327, -0.22032, 0.060282, 0.010283], [-0.36836, -0.25831, 0.11827, 0.17032], [-0.43098, -0.12706, 0.25995, 0.11817], [0.16163, 0.17504, 0.17244, 0.30783], [-0.97177, -1.2971, -1.1049, -0.31686], [1.0942, 1.2483, 0.94513, 0.51198], [0.46992, 0.11013, 0.22903, 0.087908], [-0.20364, -0.26106, -0.04353, -0.12103], [-0.4137, -0.16634, 0.03794, 0.075838], [0.38907, 0.19721, 0.60024, -0.23877], [-0.16356, -0.065954, 0.013031, 0.028751], [1.0694, 1.2371, 0.97992, 0.51198], [1.4941, 1.5848, 1.3682, 0.58624], [0.31838, 1.1007, 1.1233, 1.0], [0.92041, 1.3014, 0.86012, 0.76896], [0.20698, 0.38154, 0.26875, 0.27727], [0.89986, 0.65393, 0.57585, 0.15813], [1.0496, 1.2712, 1.5571, 0.50906], [0.78498, 0.76306, 0.5294, 0.21075], [-0.38311, -0.24843, 0.17176, -0.0047609], [-0.14518, 0.18667, 0.26589, 0.33029], [0.43437, 0.32589, 0.42236, -0.033679], [1.6857, 2.4355, 1.662, 1.4151], [1.486, 1.8392, 1.4521, 0.91503], [0.017831, 0.16496, 0.63369, 0.13618], [-0.16076, -0.090561, 0.38126, 0.045332], [-0.034342, -0.074054, -0.068074, 0.029057], [0.80389, 1.8343, 1.8382, 1.3684], [1.5105, 2.2418, 1.4655, 1.2647], [0.67212, 0.40598, 0.33839, -0.033612], [0.08568, 0.14033, -0.013984, 0.16794], [-0.15497, -0.20965, 0.29477, -0.068727], [0.636, 0.75921, 0.43058, 0.29178], [1.1084, 1.0105, 0.68505, 0.35325], [-0.31546, 0.050517, 0.42105, 0.18282], [1.7421, 2.3533, 1.7457, 1.2779], [-0.53853, -0.71353, -0.078252, -0.35367], [0.52083, 1.0898, 1.5798, 0.70685], [1.7438, 2.9057, 2.2992, 1.8341], [1.2671, 1.4518, 1.4776, 0.69101], [-0.14294, -0.4575, -0.24077, -0.40149], [1.3454, 1.3506, 1.2832, 0.50056], [0.93952, 1.9148, 1.8709, 1.417], [1.1331, 1.0787, 0.61533, 0.45475], [0.5208, 0.56756, 1.0349, 0.15423], [1.0468, 1.1402, 0.79133, 0.49167], [-0.42442, -0.43237, 0.088815, -0.15147], [0.68911, 1.0951, 1.6455, 0.53857], [0.44961, 0.068607, 0.17201, -0.28723], [1.9866, 2.7106, 2.0819, 1.5009], [1.0443, 1.3205, 0.89688, 0.69146], [0.41347, 0.20577, 0.18049, -0.10278], [1.6383, 2.0977, 2.07, 1.0458], [0.50669, 0.72761, 0.3658, 0.51952], [1.6896, 2.5115, 1.6498, 1.5058], [1.0544, 1.1272, 0.89164, 0.36105], [0.6989, 0.82206, 0.49014, 0.31525], [1.4398, 1.6977, 1.7981, 0.7281], [0.61202, 0.94473, 1.3842, 0.50408], [0.19492, 0.56786, 0.34697, 0.44335], [1.6872, 2.1647, 2.1784, 1.0957], [-0.0044087, 0.59004, 0.65566, 0.62898], [0.28878, 0.0011626, 0.68415, -0.34043], [-0.22028, -0.75798, -0.14288, -0.65358], [1.1255, 1.4619, 1.6149, 0.76886], [0.64581, 0.67311, 1.1132, 0.31896], [-0.059939, -0.16116, -0.10407, -0.077818], [0.056901, -0.54921, 0.019348, -0.66752], [0.99354, 1.1831, 0.66954, 0.61452], [-0.18889, 0.012102, 0.4241, 0.25303], [0.60222, 0.77802, 1.2363, 0.44512], [1.0141, 2.1348, 1.4515, 1.5554], [0.68528, 0.64326, 0.3941, 0.20274], [-0.40068, -0.34424, 0.2179, -0.089758], [1.0427, 1.8072, 1.2988, 1.2854], [1.338, 1.6188, 1.8625, 0.68457], [0.40397, 1.4777, 0.96231, 1.2721], [1.7365, 2.7625, 2.0254, 1.7529], [1.7311, 2.2115, 1.7157, 1.1344], [0.73025, 0.98991, 0.60239, 0.56871], [0.13856, 0.48328, 0.86055, 0.39321], [0.58711, 1.5232, 1.1227, 1.2468], [0.40244, 0.89521, 1.2284, 0.75093], [-0.47709, -0.5617, -0.22121, -0.27051], [0.99049, 1.8055, 1.8112, 1.2138], [0.19634, 0.66409, 0.95725, 0.60906], [1.2129, 1.3518, 0.96593, 0.55336], [1.3375, 2.3203, 2.284, 1.5864], [0.21058, 0.064727, 0.44448, -0.1844], [1.7214, 2.6377, 1.8072, 1.6002], [0.36851, 0.29512, 0.11647, 0.092016], [0.77044, 0.62904, 0.45088, 0.15193], [0.65604, 0.4937, 0.34229, 0.13978], [1.1697, 1.25, 1.1515, 0.40885], [0.67093, 1.1149, 1.4297, 0.83715], [1.4059, 1.7124, 1.4114, 0.82061], [0.61793, 0.5149, 0.95507, 0.13065], [-0.36194, -0.3201, 0.35444, -0.11462], [0.29111, 0.53819, 0.13687, 0.46071], [-0.22999, 0.049223, 0.13796, 0.09615], [0.25633, -0.058534, 0.042776, -0.21564], [1.1562, 1.32, 1.577, 0.52036], [-0.44324, -0.35379, -0.15191, 0.074159], [0.4762, 1.0179, 0.70009, 0.80186], [0.53532, 0.35483, 0.37235, 0.020333], [0.084446, 0.67625, 0.87563, 0.6277], [0.94064, 1.4905, 1.6992, 0.93737], [-0.16267, -0.11868, -0.044632, -0.026971], [0.3437, 0.99629, 1.2193, 0.85369], [0.26257, -0.3136, 0.33021, -0.50182], [0.34605, 0.051327, 0.11755, -0.25497], [0.41083, 0.60832, 1.1155, 0.34596], [1.38, 2.2417, 2.3257, 1.2618], [0.81606, 0.94936, 1.3453, 0.45722], [0.0060628, 0.45909, 0.46115, 0.53291], [1.6781, 2.3186, 1.6937, 1.2286], [0.78921, 1.0636, 0.65103, 0.56681], [0.39258, 1.1894, 1.3394, 1.0076], [1.1861, 1.4818, 1.0396, 0.74468], [0.63736, 0.8317, 0.36793, 0.49485], [1.4505, 1.7961, 1.34, 0.9296], [0.60328, 0.44797, 0.79443, -0.064389], [-0.27855, -0.26793, 0.15129, -0.14932], [-0.21981, -0.75869, -0.211, -0.60948], [0.83995, 1.7796, 1.6516, 1.2957], [1.5755, 1.9769, 1.3054, 0.95821], [0.10851, -0.12792, -0.083073, -0.21649], [-0.1855, -0.4579, -0.26415, -0.32184], [0.038342, 0.25532, 0.81283, 0.17415], [-0.13977, -0.3912, -0.24582, -0.23783], [0.69412, 1.4369, 1.5578, 1.071], [0.94571, 1.1798, 1.5417, 0.58366], [0.16963, 0.18903, 0.064028, 0.010257], [0.069712, 0.46349, 0.85094, 0.5561], [0.8436, 0.93743, 0.62112, 0.3966], [1.2462, 2.3803, 1.9125, 1.6946], [1.5545, 1.9066, 1.5343, 0.89078], [0.38368, 0.24778, 0.10644, 0.020011], [1.2018, 2.3431, 1.689, 1.6947], [1.2882, 1.3498, 1.4389, 0.55057], [0.35297, 0.69819, 1.2304, 0.46094], [-0.12148, -0.035866, 0.12123, 0.065904], [0.84023, 1.1851, 1.5495, 0.80672], [0.21175, 0.42085, 0.2893, 0.29158], [0.22683, 0.25328, 0.21888, 0.061399], [-0.21905, -0.23518, 0.091498, -0.14581], [1.2707, 1.2147, 0.93082, 0.42805], [-0.013861, 0.27173, 0.13859, 0.344], [0.92926, 1.9827, 1.7111, 1.4988], [0.46809, 1.3341, 0.97345, 1.1129], [0.60758, 0.61347, 0.36906, 0.22337], [0.83879, 0.92979, 0.53659, 0.4558], [-0.45627, -0.78369, -0.055165, -0.49541], [1.0053, 0.83175, 0.71302, 0.21085], [0.14892, 0.63566, 0.52422, 0.61416], [1.0694, 1.1839, 0.7294, 0.43569], [-0.37416, -0.091142, 0.11636, 0.19041], [0.89145, 0.99867, 0.64548, 0.31918], [0.12354, 0.43483, 0.84143, 0.42048], [-0.11552, 0.15027, -0.032091, 0.30793], [0.75553, 0.82515, 1.2694, 0.34897], [1.7751, 2.1758, 1.8905, 1.0805], [-0.45702, -0.52904, 0.045152, -0.31149], [0.7056, 0.65747, 0.71444, 0.15872], [-0.019807, -0.086684, 0.41143, -0.18302], [0.70367, 1.259, 0.76832, 0.91113], [1.0238, 2.0147, 1.2373, 1.4364], [0.95752, 0.91283, 0.74019, 0.21381], [-0.20423, 0.21181, 0.58424, 0.3534], [-0.31426, -0.31848, -0.063504, -0.12914], [-0.045675, 0.39081, 0.40339, 0.42561], [-0.20846, 0.15219, 0.37897, 0.24493], [0.96666, 0.4918, 0.57603, -0.1507], [-0.23226, -0.084995, 0.13682, 0.097223], [0.332, -0.054687, 0.73888, -0.23825], [0.32594, 0.56581, 0.11969, 0.44114], [0.8383, 0.8058, 0.52863, 0.26169], [-0.056213, -0.4464, -0.18324, -0.37876], [0.42125, 0.71989, 1.2164, 0.459], [0.041278, 0.116, 0.62084, 0.061925], [-0.10417, 0.3726, 0.6449, 0.5028], [0.71401, 1.1614, 1.5765, 0.70179], [1.0255, 2.0865, 1.9376, 1.5437], [0.16803, 0.9651, 0.86565, 0.93358], [1.8765, 2.8968, 2.2399, 1.7224], [-0.062007, 0.25564, 0.80147, 0.2422], [0.87239, 0.78616, 1.0846, 0.22304], [0.53169, 0.095202, 0.23332, -0.24417], [0.49157, 1.2723, 0.76514, 0.98936], [0.98388, 1.085, 1.4445, 0.45032], [1.1018, 2.2323, 1.4427, 1.5601], [0.038116, 0.35704, 0.89358, 0.2764], [1.0561, 1.1859, 0.71251, 0.59762], [-0.221, 0.0082666, 0.29855, 0.14728], [1.2376, 1.4103, 1.0329, 0.67994], [0.13173, 0.47276, 0.3169, 0.51997], [1.2495, 1.6075, 1.6704, 0.77391], [1.2125, 2.3416, 1.7706, 1.6828], [-0.03781, -0.050538, -0.1382, 0.068089], [1.4604, 2.4819, 1.7181, 1.6474], [0.46245, 0.87774, 1.3513, 0.60243], [0.24845, 0.4388, 0.94396, 0.27745], [0.70165, 0.97585, 1.3704, 0.70588], [0.50445, 0.64631, 0.31116, 0.42364], [0.70469, 0.83435, 0.46894, 0.32448], [-0.21842, 0.14399, 0.25839, 0.39986], [-0.078723, 0.22409, 0.23774, 0.39177], [-0.35822, -0.34272, -0.0044633, -0.10761], [-0.10886, 0.26537, 0.5646, 0.35354], [1.3324, 1.7589, 1.7667, 0.90356], [0.59944, 0.92318, 0.60704, 0.51792], [1.351, 1.648, 1.3303, 0.74235], [-0.5439, -0.64228, -0.046048, -0.33421], [1.1143, 1.6449, 1.1494, 0.90932], [-0.37279, -0.078703, 0.10541, 0.22032], [1.6001, 2.6991, 2.1232, 1.7678], [0.34064, 0.92165, 1.3082, 0.72324], [0.29626, 0.89308, 0.63715, 0.76647], [0.83623, 0.93577, 0.53775, 0.44168], [1.202, 1.544, 1.5913, 0.84096], [-0.28431, 0.13236, 0.41331, 0.36836], [0.82839, 1.7247, 1.8031, 1.2034], [1.1499, 1.4768, 1.0157, 0.79236], [1.3546, 2.0865, 2.0813, 1.1804], [0.79568, 0.804, 0.55326, 0.25159], [-0.29791, -0.12594, 0.4806, 0.0374], [0.64692, 1.2794, 1.5144, 0.95506], [1.3615, 1.9097, 1.9841, 1.0616], [-0.30594, -0.0050669, 0.2242, 0.12015], [0.67786, 1.6002, 0.9529, 1.1955], [0.20645, 0.77677, 1.2714, 0.62332], [1.0719, 1.0862, 1.1425, 0.31841], [0.91721, 1.189, 0.76629, 0.5857], [-0.33077, -0.11651, 0.28943, 0.10089], [0.68754, 1.5314, 1.5821, 1.1507], [1.0574, 1.3571, 0.80729, 0.67137], [-0.33099, -0.085582, 0.10583, 0.18026], [1.6047, 2.6232, 2.298, 1.6584], [0.53747, 0.45949, 0.42911, 0.091089], [1.3632, 1.7656, 1.2005, 0.81717], [0.189, 0.77838, 0.67478, 0.71246], [-0.28569, 0.18856, 0.62917, 0.43493], [1.5153, 2.6314, 2.0621, 1.7747], [0.80409, 1.6757, 1.0877, 1.1838], [0.7371, 1.8114, 1.2966, 1.4216], [-0.067431, 0.47942, 0.59648, 0.51604], [0.95418, 1.4019, 1.6626, 0.85208], [0.11742, -0.30416, -0.10925, -0.34817], [0.74905, 0.60146, 0.51199, 0.22095], [0.86096, 0.89762, 0.60959, 0.34708], [0.42983, 1.2637, 0.96529, 1.0429], [0.26895, 0.53061, 1.0229, 0.39975], [-0.33518, 0.10168, 0.24255, 0.40841], [0.81893, 0.85651, 0.65764, 0.33597], [0.94134, 0.92872, 0.85261, 0.21368], [-0.32751, -0.36004, 0.23213, -0.086836], [-0.42999, -0.38861, 0.0081869, -0.16805], [0.33225, 1.1092, 1.0101, 1.0317], [0.8679, 1.1526, 0.5806, 0.64126], [1.3628, 2.4341, 2.0839, 1.6907], [-0.6334, -0.49097, -0.20746, 0.054409], [0.26684, 0.0031178, 0.042438, -0.16961], [0.97065, 1.7095, 1.8692, 1.1069], [1.107, 1.167, 1.4011, 0.45272], [-0.31909, 0.019176, 0.20451, 0.30694], [-0.092311, -0.036754, 0.71639, 0.04778], [1.2466, 1.9131, 1.2986, 1.1002], [0.80036, 1.2828, 0.83434, 0.77934], [-0.074482, 0.059037, 0.32393, 0.079427], [-0.059758, 0.36281, 0.421, 0.45778], [0.52545, 1.0368, 1.4472, 0.76867], [-0.31671, -0.27914, 0.33545, -0.068132], [0.040453, 0.16278, 0.14928, 0.19691], [-0.076617, 0.14544, 0.33013, 0.18365], [1.1984, 1.852, 1.9744, 1.1453], [0.41399, 0.79345, 0.4791, 0.51875], [1.1068, 1.0925, 0.80292, 0.43408], [0.97769, 1.1537, 1.5056, 0.55057], [0.77339, 1.8474, 1.7389, 1.3746], [0.91053, 0.73914, 0.6321, 0.19275], [0.59923, 1.2959, 1.4542, 1.004], [0.66654, 0.7206, 0.5086, 0.31645], [1.192, 2.019, 1.2709, 1.2367], [0.64261, 1.3918, 1.3489, 1.1178], [-0.2646, -0.11422, 0.36255, 0.035517], [0.65569, 1.8494, 1.3141, 1.5641], [1.7403, 2.4427, 2.1677, 1.3329], [-0.079187, 0.33643, 0.34935, 0.39902], [0.78325, 1.5067, 1.6813, 1.0617], [0.3985, 1.4669, 1.2458, 1.1827], [-0.4269, -0.50342, -0.31462, -0.19646], [-0.029385, 0.072647, 0.0015527, 0.17621], [0.71659, 1.336, 0.8074, 1.0453], [0.45625, 0.29989, 0.11664, 0.041389], [1.1711, 1.1373, 0.91223, 0.44564], [-0.35022, -0.26862, 0.46144, -0.068141], [1.4945, 1.8234, 1.2317, 0.85143], [-0.12701, -0.21082, 0.13877, -0.072226], [0.17792, 0.61589, 1.0457, 0.50622], [-0.053382, 0.4322, 0.65352, 0.5295], [0.91734, 0.82234, 0.5901, 0.27974], [0.78375, 0.89936, 0.39507, 0.54124], [0.45115, 0.46682, 0.10102, 0.28157], [0.17999, 0.39673, 0.13784, 0.31832], [0.67009, 0.8715, 0.46875, 0.47678], [0.71813, 0.28141, 0.23788, -0.1613], [0.53982, 0.73547, 1.1892, 0.38405], [-0.1521, 0.23414, 0.57869, 0.2513], [1.7228, 2.157, 1.6094, 1.1007], [0.60897, 1.6751, 1.5533, 1.3541], [0.95182, 1.686, 1.7237, 1.1851]], "kernel": "gaussian", "support_vector_labels": [[1.0], [1.0], [1.0], [1.0], [1.0], [1.0], [1.0], [1.0], [1.0], [1.0], [1.0], [1.0], [1.0], [1.0], [1.0], [1.0], [1.0], [1.0], [1.0], [1.0], [1.0], [1.0], [1.0], [1.0], [1.0], [1.0], [1.0], [1.0], [1.0], [1.0], [1.0], [1.0], [1.0], [1.0], [1.0], [1.0], [1.0], [1.0], [1.0], [1.0], [1.0], [1.0], [1.0], [1.0], [1.0], [1.0], [1.0], [1.0], [1.0], [1.0], [1.0], [1.0], [1.0], [1.0], [1.0], [1.0], [1.0], [1.0], [1.0], [1.0], [1.0], [1.0], [1.0], [1.0], [1.0], [1.0], [1.0], [1.0], [1.0], [1.0], [1.0], [1.0], [1.0], [1.0], [1.0], [1.0], [1.0], [1.0], [1.0], [1.0], [1.0], [1.0], [1.0], [1.0], [1.0], [1.0], [1.0], [1.0], [1.0], [1.0], [1.0], [1.0], [1.0], [1.0], [1.0], [1.0], [1.0], [1.0], [1.0], [1.0], [1.0], [1.0], [1.0], [1.0], [1.0], [1.0], [1.0], [1.0], [1.0], [1.0], [1.0], [1.0], [1.0], [1.0], [1.0], [1.0], [1.0], [1.0], [1.0], [1.0], [1.0], [1.0], [1.0], [1.0], [1.0], [1.0], [1.0], [1.0], [1.0], [1.0], [1.0], [1.0], [1.0], [1.0], [1.0], [1.0], [1.0], [1.0], [1.0], [1.0], [1.0], [1.0], [1.0], [1.0], [1.0], [1.0], [1.0], [1.0], [1.0], [1.0], [1.0], [1.0], [1.0], [1.0], [1.0], [1.0], [1.0], [1.0], [1.0], [1.0], [1.0], [1.0], [1.0], [1.0], [1.0], [1.0], [1.0], [1.0], [1.0], [1.0], [1.0], [1.0], [1.0], [1.0], [1.0], [1.0], [1.0], [1.0], [1.0], [1.0], [1.0], [1.0], [1.0], [1.0], [1.0], [1.0], [1.0], [1.0], [1.0], [1.0], [1.0], [1.0], [1.0], [1.0], [1.0], [1.0], [1.0], [1.0], [1.0], [1.0], [1.0], [1.0], [1.0], [1.0], [1.0], [1.0], [1.0], [1.0], [1.0], [1.0], [1.0], [1.0], [1.0], [1.0], [1.0], [1.0], [1.0], [1.0], [1.0], [1.0], [1.0], [1.0], [1.0], [1.0], [1.0], [1.0], [1.0], [1.0], [1.0], [1.0], [1.0], [1.0], [1.0], [1.0], [1.0], [1.0], [1.0], [1.0], [1.0], [1.0], [1.0], [1.0], [1.0], [1.0], [1.0], [1.0], [1.0], [1.0], [1.0], [1.0], [1.0], [1.0], [1.0], [1.0], [1.0], [1.0], [1.0], [1.0], [1.0], [1.0], [1.0], [1.0], [1.0], [1.0], [1.0], [1.0], [1.0], [1.0], [1.0], [1.0], [1.0], [1.0], [1.0], [1.0], [1.0], [1.0], [1.0], [1.0], [1.0], [1.0], [1.0], [1.0], [1.0], [1.0], [1.0], [1.0], [1.0], [1.0], [1.0], [1.0], [1.0], [1.0], [1.0], [1.0], [1.0], [1.0], [1.0], [1.0], [1.0], [1.0], [1.0], [1.0], [1.0], [1.0], [1.0], [1.0], [1.0], [1.0], [1.0], [-1.0], [-1.0], [-1.0], [-1.0], [-1.0], [-1.0], [-1.0], [-1.0], [-1.0], [-1.0], [-1.0], [-1.0], [-1.0], [-1.0], [-1.0], [-1.0], [-1.0], [-1.0], [-1.0], [-1.0], [-1.0], [-1.0], [-1.0], [-1.0], [-1.0], [-1.0], [-1.0], [-1.0], [-1.0], [-1.0], [-1.0], [-1.0], [-1.0], [-1.0], [-1.0], [-1.0], [-1.0], [-1.0], [-1.0], [-1.0], [-1.0], [-1.0], [-1.0], [-1.0], [-1.0], [-1.0], [-1.0], [-1.0], [-1.0], [-1.0], [-1.0], [-1.0], [-1.0], [-1.0], [-1.0], [-1.0], [-1.0], [-1.0], [-1.0], [-1.0], [-1.0], [-1.0], [-1.0], [-1.0], [-1.0], [-1.0], [-1.0], [-1.0], [-1.0], [-1.0], [-1.0], [-1.0], [-1.0], [-1.0], [-1.0], [-1.0], [-1.0], [-1.0], [-1.0], [-1.0], [-1.0], [-1.0], [-1.0], [-1.0], [-1.0], [-1.0], [-1.0], [-1.0], [-1.0], [-1.0], [-1.0], [-1.0], [-1.0], [-1.0], [-1.0], [-1.0], [-1.0], [-1.0], [-1.0], [-1.0], [-1.0], [-1.0], [-1.0], [-1.0], [-1.0], [-1.0], [-1.0], [-1.0], [-1.0], [-1.0], [-1.0], [-1.0], [-1.0], [-1.0], [-1.0], [-1.0], [-1.0], [-1.0], [-1.0], [-1.0], [-1.0], [-1.0], [-1.0], [-1.0], [-1.0], [-1.0], [-1.0], [-1.0], [-1.0], [-1.0], [-1.0], [-1.0], [-1.0], [-1.0], [-1.0], [-1.0], [-1.0], [-1.0], [-1.0], [-1.0], [-1.0], [-1.0], [-1.0], [-1.0], [-1.0], [-1.0], [-1.0], [-1.0], [-1.0], [-1.0], [-1.0], [-1.0], [-1.0], [-1.0], [-1.0], [-1.0], [-1.0], [-1.0], [-1.0], [-1.0], [-1.0], [-1.0], [-1.0], [-1.0], [-1.0], [-1.0], [-1.0], [-1.0], [-1.0], [-1.0], [-1.0], [-1.0], [-1.0], [-1.0], [-1.0], [-1.0], [-1.0], [-1.0], [-1.0], [-1.0], [-1.0], [-1.0], [-1.0], [-1.0], [-1.0], [-1.0], [-1.0], [-1.0], [-1.0], [-1.0], [-1.0], [-1.0], [-1.0], [-1.0], [-1.0], [-1.0], [-1.0], [-1.0], [-1.0], [-1.0], [-1.0], [-1.0], [-1.0], [-1.0], [-1.0], [-1.0], [-1.0], [-1.0], [-1.0], [-1.0], [-1.0], [-1.0], [-1.0], [-1.0], [-1.0], [-1.0], [-1.0], [-1.0], [-1.0], [-1.0], [-1.0], [-1.0], [-1.0], [-1.0], [-1.0], [-1.0], [-1.0], [-1.0], [-1.0], [-1.0], [-1.0], [-1.0], [-1.0], [-1.0], [-1.0], [-1.0], [-1.0], [-1.0], [-1.0], [-1.0], [-1.0], [-1.0], [-1.0], [-1.0], [-1.0], [-1.0], [-1.0], [-1.0], [-1.0], [-1.0], [-1.0], [-1.0], [-1.0], [-1.0], [-1.0], [-1.0], [-1.0], [-1.0], [-1.0], [-1.0], [-1.0], [-1.0], [-1.0], [-1.0], [-1.0], [-1.0], [-1.0], [-1.0], [-1.0], [-1.0], [-1.0], [-1.0], [-1.0], [-1.0], [-1.0], [-1.0], [-1.0], [-1.0], [-1.0], [-1.0], [-1.0], [-1.0], [-1.0], [-1.0], [-1.0], [-1.0], [-1.0], [-1.0], [-1.0], [-1.0], [-1.0], [-1.0], [-1.0], [-1.0], [-1.0], [-1.0], [-1.0], [-1.0], [-1.0], [-1.0], [-1.0], [-1.0], [-1.0], [-1.0]]}